svm_type c_svc
kernel_type rbf
gamma 0.25
nr_class 2
total_sv 3053
rho -0.495263
label 1 0
nr_sv 1996 1057
SV
0.2757650279237224 1:26.173 2:58.867 3:-0.1894697 4:125.1225 
0.5047859403880071 1:57.07397 2:221.404 3:0.08607959 4:122.9114 
0.5047957434881341 1:17.259 2:173.436 3:-0.1298053 4:125.0318 
0.4509768114946941 1:21.7794 2:124.9531 3:0.1538853 4:152.715 
0.5048900695067031 1:91.33997 2:293.5699 3:0.1423918 4:160.5402 
0.5048324206682657 1:55.375 2:179.222 3:0.1654953 4:111.2273 
0.5047363649560959 1:29.562 2:191.357 3:0.09901439 4:103.4076 
0.4593106910135429 1:145.12 2:208.86 3:-0.1760859 4:154.2257 
0.504842929333899 1:38.49699 2:41.466 3:-0.1886419 4:123.9661 
0.5045922620536962 1:29.27699 2:107.251 3:0.1149632 4:107.7885 
0.4814225580425703 1:28.867 2:109.024 3:-0.1239433 4:97.9913 
0.3613565601263093 1:24.013 2:76.02 3:0.285099 4:98.91692 
0.4896206620891723 1:28.379 2:145.216 3:0.3870011 4:154.9975 
0.2895648044088029 1:22.3814 2:82.4281 3:-0.2814865 4:89.98764 
0.5046894161584502 1:123.21 2:456.16 3:-0.1518468 4:143.2996 
0.504670372761998 1:20.08405 2:177.451 3:0.2578101 4:92.53101 
0.4650718804244619 1:32.85699 2:182.675 3:0.2204406 4:94.57175 
0.5045992477890775 1:0 2:115.478 3:0.150497 4:109.6315 
0.3411354960415811 1:39.54504 2:237.442 3:0.1089429 4:137.6333 
0.5048921733016019 1:106.798 2:323.756 3:-0.1509505 4:175.4021 
0.4230810927767023 1:34.082 2:119.828 3:0.2200156 4:138.3639 
0.4340061782273845 1:0 2:86.7108 3:0.420188 4:129.8851 
0.5048906344691466 1:48.65997 2:307.15 3:0.1756066 4:164.0174 
0.4540517785730631 1:23.4109 2:83.4714 3:0.1766868 4:98.0325 
0.5048843951448961 1:122.239 2:435.793 3:-0.1812907 4:168.7663 
0.6157939267004803 1:16.2456 2:48.3062 3:0.5508614 4:26.32639 
0.5041408148381398 1:43.89899 2:242.13 3:0.2006008 4:133.1948 
0.4940089622809586 1:61.43698 2:233.85 3:0.2758731 4:161.2433 
0.5046985720293768 1:59.52499 2:217.67 3:-0.08601014 4:117.0831 
0.3517435789687532 1:29.1585 2:125.9875 3:0.1910455 4:127.9927 
0.4996180300773782 1:50.59702 2:243.062 3:0.1863443 4:135.2273 
0.504892324367354 1:60.24097 2:197.734 3:-0.1319924 4:132.022 
0.3480255862913327 1:26.2049 2:62.7079 3:-0.140245 4:113.5866 
0.5046052011475739 1:28.47198 2:148.376 3:-0.1868249 4:167.2337 
0.3851992352369895 1:27.0799 2:77.7039 3:-0.2509235 4:97.98032 
0.3890797676861185 1:20.686 2:84.468 3:0.1761782 4:119.9423 
0.4462455091264307 1:19.6245 2:49.2309 3:0.4302725 4:93.61318 
0.504718325919311 1:49.61401 2:323.485 3:-0.1963741 4:162.2486 
0.5045821220313244 1:79.82401 2:201.754 3:-0.1412161 4:131.0716 
0.5048532775509336 1:66.96402 2:221.403 3:-0.1187778 4:141.6626 
0.5047140957994729 1:58.42999 2:134.861 3:0.2876077 4:128.6684 
0.5047147671633661 1:69.82007 2:369.3401 3:-0.1539849 4:151.1659 
0.5047560869185765 1:19.022 2:221.012 3:0.168945 4:136.8066 
0.5048895139581939 1:45.82898 2:221.595 3:0.2419124 4:162.71 
0.5044808693292037 1:50.12195 2:340.594 3:-0.2004177 4:173.5482 
0.5041803665382643 1:97.3279 2:83.6299 3:0.3004524 4:92.68482 
0.492157989690486 1:62.138 2:244.5 3:-0.2045531 4:144.239 
0.4996856909469428 1:24.457 2:142.604 3:-0.2302375 4:91.75098 
0.5046015877381991 1:37.86899 2:197.708 3:0.09417659 4:110.7027 
0.504499554456613 1:123.73 2:178.77 3:-0.1441443 4:130.352 
0.5042837524729289 1:41.8037 2:121.0217 3:-0.1792956 4:140.4431 
0.5010536629249136 1:32.3706 2:102.0206 3:-0.0857908 4:125.3724 
0.5046759992337242 1:37.9575 2:67.9255 3:-0.2099991 4:152.0504 
0.4127442125818739 1:36.256 2:90.028 3:-0.1349387 4:139.8553 
0.5001908854511677 1:23.5141 2:153.6969 3:-0.1169007 4:117.8439 
0.3718084684923547 1:25.043 2:195.966 3:0.1230792 4:105.0391 
0.4742154539915044 1:21.51999 2:103 3:0.2982677 4:124.8862 
0.4060641888117947 1:20.7173 2:50.1779 3:0.1636157 4:118.7613 
0.371166134785175 1:20.5763 2:65.2607 3:0.3237194 4:114.1607 
0.4240910853035686 1:23.78099 2:129.774 3:0.1596782 4:107.5001 
0.5046068733852158 1:56.26801 2:188.294 3:-0.1361132 4:140.0558 
0.4771964026064324 1:23.642 2:151.537 3:-0.2189088 4:91.83887 
0.46027811878401 1:31.36601 2:91.29401 3:0.2184253 4:142.0142 
0.5048958826106558 1:55.93298 2:308.106 3:-0.1353047 4:156.4504 
0.4910834252352795 1:45.746 2:188.873 3:0.09065958 4:129.8741 
0.5038040407153612 1:22.548 2:144.287 3:0.15148 4:117.9153 
0.3054661764544149 1:43.43298 2:201.142 3:-0.1850777 4:136.0046 
0.4416120823172913 1:19.02501 2:100.994 3:0.2232255 4:122.3841 
0.5061839638630298 1:29.56006 2:56.53003 3:0.2784214 4:164.6464 
0.4952398806264723 1:33.14001 2:214.8301 3:-0.113854 4:94.21469 
0.5050351160970972 1:28.3723 2:52.6541 3:-0.3765493 4:134.9389 
0.330507550210721 1:22.81599 2:68.18298 3:0.2088072 4:162.9902 
0.5043028934449226 1:107.96 2:426.329 3:0.1836555 4:161.2625 
0.3939473629955545 1:25.9741 2:79.5938 3:-0.2461588 4:98.93889 
0.5048919849747773 1:48.3483 2:179.8393 3:-0.318316 4:174.3914 
0.5311735397134912 1:19.7492 2:45.8642 3:-0.1964635 4:134.1424 
0.4501633725806395 1:41.04199 2:161.264 3:0.1591512 4:111.8727 
0.4865066652042959 1:24.9733 2:117.708 3:-0.3051164 4:164.3772 
0.5126760473824838 1:21.8378 2:17.2425 3:-0.4093676 4:107.8929 
0.5048920846923219 1:90.125 2:105.859 3:0.1675169 4:166.9783 
0.3580734910022075 1:19.8109 2:86.19101 3:0.2891504 4:150.8858 
0.504896705343834 1:133.704 2:423.4241 3:-0.1397143 4:168.7031 
0.5007281257682281 1:25.72598 2:199.071 3:-0.2194515 4:91.55596 
0.4752562976014768 1:30.9354 2:97.29181 3:-0.0967374 4:148.2518 
0.4874211137266202 1:29.211 2:176.555 3:0.3540535 4:152.2124 
0.4637344304696024 1:31.4923 2:71.82829 3:-0.1760218 4:123.4992 
0.4803257930925959 1:21.644 2:73.9961 3:-0.2648312 4:157.1783 
0.2174154045045596 1:20.8785 2:92.2616 3:0.1469187 4:119.0167 
0.4757653720141766 1:25.478 2:116.22 3:-0.1509489 4:103.902 
0.5033087802208057 1:24.42801 2:149.011 3:-0.09140104 4:160.8258 
0.5048095523660674 1:101.7999 2:143.13 3:0.1561447 4:146.4445 
0.5048993369554883 1:133.717 2:530.427 3:-0.1441823 4:150.1387 
0.3273721220584784 1:21.668 2:71.211 3:0.2286803 4:104.5063 
0.3447107280158691 1:18.82098 2:87.70099 3:0.1093747 4:69.35226 
0.5047867544807818 1:43.10399 2:205.986 3:0.176378 4:160.2271 
0.5035566704893469 1:33 2:190.282 3:-0.1433576 4:147.0817 
0.503954387875746 1:29.858 2:112.33 3:-0.1596831 4:93.77798 
0.424041844009964 1:30.45 2:131.288 3:-0.1449632 4:97.56283 
0.4918502530190658 1:87.06299 2:308.712 3:-0.1642287 4:159.7162 
0.4623817123106466 1:64.33502 2:177.46 3:0.1431059 4:127.2456 
0.4839205496360508 1:29.39799 2:145.365 3:-0.2487779 4:146.5296 
0.3833072852815148 1:24.971 2:86.212 3:0.2084478 4:144.791 
0.3776968193931198 1:21.882 2:104.326 3:-0.1929159 4:154.4893 
0.504362977313723 1:26.32098 2:225.844 3:-0.1376455 4:86.96635 
0.455792232761296 1:23.9763 2:60.1777 3:-0.392868 4:155.3271 
0.5032186183342267 1:36.33099 2:132.271 3:-0.1338904 4:104.564 
0.4324756284237804 1:22.55 2:99.0742 3:0.235968 4:99.85901 
0.4877816827889405 1:22.8266 2:77.73849 3:-0.1647308 4:122.3429 
0.504672452280521 1:59.342 2:174.813 3:-0.2064767 4:157.2909 
0.504893948182342 1:87.79102 2:197.525 3:-0.07853987 4:152.4239 
0.3910477560669918 1:23.5682 2:78.0788 3:-0.2331371 4:135.9661 
0.4979104424460259 1:27.13199 2:102.757 3:-0.2512551 4:95.90387 
0.3504185550629949 1:27.2091 2:46.9291 3:-0.2033886 4:108.4065 
0.5012085676393114 1:21.901 2:168.932 3:0.2447439 4:131.3683 
0.5049006203400888 1:23.48599 2:266.225 3:0.1282682 4:156.9778 
0.4723604842650641 1:32.022 2:149.33 3:-0.09873985 4:111.3344 
0.5039829821005581 1:25.48297 2:208.115 3:0.1670111 4:136.845 
0.442570193306452 1:21.5758 2:104.7904 3:-0.167391 4:129.3687 
0.5014939612407052 1:26.77801 2:131.898 3:0.1374579 4:111.296 
0.5048331015449472 1:73.80501 2:171.091 3:0.1713515 4:155.2502 
0.5046374458944665 1:79.06 2:382.3521 3:-0.1219006 4:145.2937 
0.5048937185411182 1:201.17 2:341.52 3:-0.1657539 4:161.2845 
0.5046399672790931 1:30.41699 2:124.113 3:0.3845311 4:179.9615 
0.4626924157778007 1:63.22702 2:176.913 3:-0.1263382 4:124.4193 
0.5048914522460055 1:137.34 2:250.1899 3:-0.1590459 4:146.84 
0.4207704540652583 1:34.758 2:153.46 3:0.2183561 4:101.1032 
0.5049682271842323 1:50.754 2:140.167 3:0.3087629 4:156.7828 
0.440647039954351 1:26.211 2:75.754 3:-0.2965076 4:164.2646 
0.4810270632652806 1:22.00301 2:115.296 3:-0.1963527 4:147.1009 
0.2491691051618435 1:26.7498 2:59.7091 3:0.2118464 4:123.219 
0.2581925628329141 1:22.20599 2:132.477 3:0.1605484 4:91.65759 
0.4832540001166869 1:23.99802 2:73.11502 3:0.2908404 4:149.7734 
0.5046462069333126 1:0 2:118.287 3:-0.1559274 4:151.5312 
0.4029712699125588 1:39.263 2:191.421 3:0.1158582 4:130.0993 
0.5014291518560032 1:28.23301 2:150.484 3:0.244699 4:92.58045 
0.4090359029828941 1:91.146 2:372.908 3:-0.2069705 4:145.0822 
0.2035612199340215 1:20.8704 2:63.3006 3:-0.2645898 4:110.8483 
0.5043724746289924 1:30.02899 2:136.845 3:0.2922238 4:150.3117 
0.4756914253901139 1:25.89301 2:166.133 3:0.225785 4:128.6079 
0.3958320754689332 1:26.8119 2:96.10239 3:-0.2364044 4:138.8089 
0.5039111444758274 1:121.3398 2:104.4128 3:-0.1536185 4:157.8045 
0.5027703502811742 1:24.51801 2:42.61099 3:0.2676385 4:108.4697 
0.3529961210958873 1:21.664 2:87.076 3:0.2398175 4:100.6033 
0.3210007867167341 1:27.0542 2:114.9732 3:-0.2867806 4:129.4292 
0.5045971909353946 1:36.93901 2:112.141 3:0.1312338 4:114.6249 
0.3713135867187938 1:25.20599 2:197.985 3:0.2347466 4:105.0089 
0.5045730339637657 1:27.19702 2:200.046 3:-0.1635672 4:139.295 
0.5042112909743616 1:50.75998 2:279.995 3:-0.1165064 4:157.6013 
0.5048326482268124 1:36.44098 2:225.614 3:-0.1091292 4:108.423 
0.3110551190987049 1:22.7167 2:61.42069 3:-0.1431142 4:114.5342 
0.5049022545176141 1:60.18201 2:156.243 3:0.2510956 4:154.3905 
0.4627072568934968 1:23.612 2:142.554 3:0.1988855 4:98.82353 
0.4582088164938787 1:24.069 2:67.991 3:0.207844 4:134.7686 
0.5046419899548582 1:45.47998 2:227.1801 3:0.1624598 4:122.8867 
0.5048334439924865 1:68.40991 2:155.49 3:-0.1388937 4:144.0769 
0.5042616477214651 1:108.469 2:34.21301 3:0.2405673 4:134.3593 
0.4570937228085423 1:21.07101 2:75.718 3:0.2221708 4:134.9142 
0.1740171399906365 1:25.44891 2:49.2227 3:0.2052755 4:116.5338 
0.5049945425412856 1:42.7215 2:94.3934 3:-0.3558331 4:176.0723 
0.5046515149453121 1:97.20501 2:172.365 3:-0.09005467 4:151.284 
0.5047776748176689 1:42.59998 2:181.718 3:0.05547264 4:165.6928 
0.5031882603549618 1:33.09601 2:129.194 3:-0.157092 4:115.6988 
0.5050285387530161 1:51.13 2:274.75 3:-0.1325657 4:131.8462 
0.5044347578186182 1:80.22101 2:252.343 3:-0.1687138 4:123.1476 
0.5046378748550412 1:42.513 2:155.459 3:-0.08623955 4:111.3069 
0.4214373298952475 1:32.39101 2:97.23399 3:0.2721891 4:163.4049 
0.4974092107899885 1:30.407 2:218.479 3:0.2842778 4:152.7095 
0.5048893158669596 1:57.24298 2:277.317 3:-0.1971121 4:143.1293 
0.504696150526988 1:73.41003 2:118.1801 3:0.1420037 4:123.4635 
0.5007283379682044 1:48.40799 2:246.561 3:0.1959212 4:133.7496 
0.5058470525955755 1:0 2:126.088 3:-0.1727193 4:109.1865 
0.5047133055197409 1:41.32901 2:161.773 3:0.1446067 4:97.20302 
0.5048908376157496 1:77.32703 2:329.416 3:0.2035125 4:136.4001 
0.5044637756867174 1:25.789 2:191.669 3:-0.1855473 4:121.8567 
0.4066089473364952 1:35.04501 2:144.243 3:-0.06442587 4:113.9272 
0.4129503166751782 1:21.2079 2:56.9959 3:0.4919596 4:93.19295 
0.3870445323190672 1:32.217 2:96.265 3:0.1087279 4:141.5802 
0.5048969532519503 1:161.83 2:240.38 3:-0.1812508 4:155.2419 
0.5048916855200227 1:156.482 2:509.043 3:-0.1672319 4:175.3609 
0.5046040261366593 1:31.26401 2:181.29 3:0.2979027 4:143.0359 
0.4793146550767866 1:24.9938 2:99.76479 3:0.2812917 4:88.02106 
0.3012695080774433 1:28.022 2:81.88501 3:-0.2466587 4:103.545 
0.5004997087710265 1:34.60699 2:201.837 3:0.2872964 4:152.5722 
0.4911291979510564 1:35.854 2:223.529 3:-0.07938398 4:159.6777 
0.5045946425363649 1:53.694 2:146.475 3:-0.1348491 4:135.826 
0.5044893088404707 1:51.26001 2:67.65991 3:0.1770727 4:125.0675 
0.5048902135227269 1:75.78003 2:49.96997 3:0.09151085 4:133.4337 
0.485183768198602 1:22.4451 2:37.6895 3:-0.2014975 4:134.3154 
0.5033743867018666 1:37.79999 2:231.082 3:-0.1701628 4:147.0185 
0.4205849389663624 1:25.237 2:154.203 3:0.2189267 4:93.19295 
0.4660109071624795 1:35.08501 2:155.11 3:0.1946249 4:131.2419 
0.06314036964422988 1:23.627 2:92.679 3:-0.08233782 4:98.18906 
0.4381111718569382 1:29.20203 2:187.233 3:-0.16709 4:90.03983 
0.5045810863189251 1:56.142 2:246.801 3:0.1981832 4:147.9359 
0.5048983928781632 1:96.06995 2:162.0399 3:0.1612515 4:142.602 
0.4944571654921256 1:35.33398 2:119.967 3:0.1412604 4:142.0417 
0.50489055501864 1:128.1 2:381.53 3:-0.1817326 4:176.1575 
0.434768369932774 1:29.7135 2:144.9665 3:-0.09323585 4:143.0854 
0.4169941773088603 1:24.7665 2:111.8302 3:0.3244582 4:167.1238 
0.3778743223616908 1:33.909 2:144.274 3:-0.1112454 4:110.7219 
0.4330312585554217 1:24.672 2:99.96399 3:-0.175154 4:101.1719 
0.5039329290022301 1:20.03801 2:109.654 3:-0.1999739 4:75.79584 
0.3686159407650612 1:31.33099 2:132.88 3:0.2494461 4:105.5308 
0.5047541613007891 1:49.14499 2:244.814 3:-0.1779569 4:143.415 
0.406592215770858 1:23.75101 2:129.84 3:0.3050942 4:88.63905 
0.4713973576961857 1:19.153 2:142.453 3:0.2619713 4:127.3307 
0.407310175017843 1:24.57199 2:60.627 3:-0.2591302 4:107.9258 
0.4946755617654826 1:26.636 2:128.675 3:0.2482951 4:141.594 
0.462014997253532 1:25.328 2:81.23801 3:-0.2447871 4:95.41772 
0.4787560340638224 1:19.881 2:69.692 3:0.3647078 4:124.7846 
0.4862304077039395 1:19.7263 2:109.4343 3:-0.2283529 4:154.4097 
0.5048903314466918 1:16.431 2:140.393 3:-0.2270102 4:34.40971 
0.503293264196267 1:16.789 2:128.108 3:0.4190153 4:149.9052 
0.3990311716905506 1:24.7307 2:88.3701 3:-0.26004 4:106.8656 
0.5046504381390049 1:26.58501 2:251.462 3:-0.1115851 4:166.6487 
0.4861668732501023 1:45.51797 2:182.305 3:0.1115851 4:109.0053 
0.4812275233198627 1:51.978 2:122.143 3:0.05964218 4:117.2259 
0.4813817871432254 1:80.54999 2:249.893 3:-0.2121712 4:151.078 
0.4529062656504317 1:30.572 2:82.9572 3:0.2968907 4:145.9474 
0.3779760785383202 1:32.2122 2:121.7376 3:0.07931677 4:155.8929 
0.5005151585087042 1:55.59204 2:224.408 3:0.1422918 4:153.6983 
0.5047623099838245 1:26.4551 2:38.1431 3:-0.1513146 4:158.1231 
0.5006651648089092 1:78.15201 2:264.895 3:0.07070789 4:142.1927 
0.1649038869118986 1:22.1237 2:78.8399 3:-0.159063 4:105.0034 
0.503745648935286 1:62.89795 2:335.545 3:0.1257588 4:150.9764 
0.5026995419393774 1:29.44101 2:133.357 3:0.3079125 4:161.0071 
0.5288042014949309 1:20.9366 2:66.0649 3:-0.1862604 4:146.7768 
0.4794998026199107 1:32.53003 2:42.87 3:-0.1560346 4:110.5351 
0.5037075321020847 1:37.25897 2:230.846 3:-0.1929708 4:151.9432 
0.3825580793340521 1:41.41301 2:180.032 3:0.1887619 4:153.9263 
0.4988076754868057 1:22.7872 2:162.0099 3:-0.1020847 4:114.7897 
0.5039504386960335 1:37.28799 2:178.754 3:0.1427734 4:116.3772 
0.504889566326409 1:75.78299 2:514.136 3:0.1537508 4:160.5869 
0.4023675607282282 1:19.8673 2:62.1475 3:0.2126621 4:115.3307 
0.5048905755700062 1:64.37598 2:373.5129 3:-0.117297 4:153.171 
0.5048702603717967 1:49.72501 2:229.877 3:-0.05363147 4:116.4239 
0.5048930053394812 1:67.63501 2:162.362 3:-0.1976886 4:139.1302 
0.4843600424218965 1:29.3048 2:102.4868 3:0.2093718 4:150.6111 
0.4756724600846554 1:35.5376 2:129.8506 3:-0.1321309 4:121.7551 
0.5048933414839885 1:148.4301 2:296.22 3:-0.1641486 4:171.1861 
0.5048409515320955 1:46.29001 2:278.999 3:0.1758608 4:140.4514 
0.2349156282162077 1:21.6742 2:80.222 3:0.313838 4:103.7043 
0.5018875420393881 1:41.7 2:139.596 3:-0.1564739 4:145.6892 
0.4870045756657085 1:21.96001 2:184.829 3:-0.2751613 4:88.08148 
0.504862524329816 1:40.85199 2:205.657 3:0.1243663 4:119.176 
0.4676439925954479 1:30.0762 2:95.32201 3:-0.07529272 4:145.5518 
0.4582797044145933 1:27.28601 2:144.471 3:-0.1044264 4:110.3072 
0.5023205776991474 1:29.2495 2:46.2495 3:0.2573052 4:152.7013 
0.4424642095480823 1:24.8381 2:66.4681 3:-0.08955971 4:137.4603 
0.4118865907799298 1:31.924 2:142.356 3:-0.09629899 4:118.6075 
0.4678594969246518 1:22.39201 2:82.56401 3:0.2879985 4:150.7924 
1 1:23.2085 2:38.2578 3:0.2055369 4:127.2016 
0.3086742865093955 1:23.8772 2:50.7041 3:-0.2748511 4:97.20027 
0.3862348072179519 1:32.78497 2:180.912 3:0.2102727 4:99.68597 
0.3156901218244833 1:20.0749 2:63.60471 3:0.1365462 4:109.0712 
0.5048964748007976 1:31.66003 2:109.24 3:0.2907992 4:157.0932 
0.4204256069047049 1:21.99419 2:87.33009 3:-0.1217895 4:111.6695 
0.5046900471156658 1:21.23601 2:77.972 3:0.1345283 4:84.61799 
0.5043537757681138 1:30.64697 2:250.963 3:0.2259476 4:154.4015 
0.5041102734379816 1:67.35001 2:161.65 3:-0.1629068 4:168.5329 
0.5046771871702793 1:40.70798 2:282.252 3:0.157944 4:145.0053 
0.5175232665174929 1:20.1113 2:55.71811 3:-0.2582854 4:107.3738 
0.5046867383995148 1:33.4515 2:59.0685 3:-0.1509388 4:135.1092 
0.5048916326447093 1:52.12 2:80.68994 3:0.1192167 4:133.4255 
0.5009055531960762 1:42.04401 2:223.623 3:-0.09630278 4:119.2886 
0.274757197897725 1:30.15199 2:156.177 3:-0.07456908 4:108.4587 
0.5031304229034463 1:87.78699 2:278.795 3:-0.1539903 4:158.1588 
0.4470064418491076 1:23.957 2:101.655 3:0.2180713 4:118.0993 
0.3677312394695074 1:119.84 2:351.6901 3:-0.1677006 4:170.2495 
0.4939925634945037 1:38.0204 2:151.1344 3:-0.1086522 4:136.1227 
0.5048968679655932 1:66.573 2:326.049 3:0.09251707 4:131.4232 
0.5048969628853976 1:72.375 2:109.389 3:-0.1792897 4:122.7356 
0.5048942087121605 1:72.38 2:156.17 3:-0.1297804 4:158.0023 
0.3213701102231425 1:20.373 2:123.697 3:0.2871405 4:137.6223 
0.5046911876520621 1:82.125 2:243.807 3:-0.1489647 4:167.0222 
0.5031081475215692 1:18.4748 2:81.6796 3:-0.3352248 4:165.6846 
0.5045922469406031 1:19.8338 2:61.888 3:0.342671 4:79.74548 
0.3508735363931296 1:22.181 2:51.453 3:0.1593816 4:94.54704 
0.5048906535398363 1:39.0042 2:53.6024 3:-0.1505167 4:114.1167 
0.5048929427639023 1:124.01 2:159.4501 3:-0.1156879 4:133.8018 
0.4031569447797897 1:29.2604 2:99.5724 3:0.1086352 4:140.2563 
0.4689267304863244 1:22.49402 2:224.318 3:0.1118973 4:80.91554 
0.3225104507732656 1:20.68501 2:67.255 3:0.3391265 4:95.19524 
0.457397338341034 1:24.0428 2:98.6396 3:0.1598028 4:138.2046 
0.504890747429079 1:126.453 2:8.522003 3:0.3624534 4:165.583 
0.440890163328028 1:78.034 2:293.484 3:0.1380849 4:152.8386 
0.5047170742244289 1:107.749 2:416.877 3:-0.1622813 4:159.8041 
0.4621229933184027 1:26.81805 2:185.099 3:0.1241267 4:96.40925 
0.5047118468461936 1:70.12 2:233.49 3:0.09340785 4:159.9277 
0.7629207307410921 1:21.9116 2:28.7592 3:-0.1198398 4:121.1151 
0.2873434309436534 1:34.103 2:153.657 3:0.1818246 4:103.4022 
0.5048908625484194 1:168.5 2:328.7001 3:-0.1635768 4:149.1197 
0.4467609100968638 1:21.6631 2:85.99489 3:0.3497697 4:97.10414 
0.5050949229929025 1:57.034 2:110.574 3:-0.1269336 4:130.3932 
0.4043968551765025 1:29.646 2:215.417 3:-0.1347539 4:141.4731 
0.2427811708313643 1:21.5594 2:92.9074 3:0.1413967 4:103.2538 
0.505090669555996 1:21.79199 2:198.951 3:0.2111822 4:134.3593 
0.4586369315312353 1:23.63901 2:131.233 3:-0.3466923 4:147.48 
0.5044333633787529 1:57.67297 2:176.639 3:0.07800644 4:122.7329 
0.4738908930080972 1:34.79102 2:213.839 3:-0.09728985 4:137.1115 
0.4951461882243839 1:24.409 2:81.03299 3:-0.1506686 4:141.4264 
0.4681695643196873 1:35.08203 2:266.098 3:0.06392246 4:104.7013 
0.5044421231824072 1:65.30801 2:244.413 3:-0.0973189 4:112.2023 
0.4771409930177642 1:21.9125 2:92.6382 3:-0.1878039 4:110.211 
0.5048922643082794 1:129.9828 2:79.3958 3:-0.1956031 4:151.1934 
0.5048905112129779 1:47.798 2:233.745 3:0.04787695 4:132.217 
0.5048933979297676 1:48.13699 2:241.736 3:0.06906598 4:103.2209 
0.5047023675918606 1:38.37399 2:342.486 3:0.1644761 4:152.2866 
0.504891625810026 1:113.9299 2:274.2 3:-0.2783759 4:165.3687 
0.3427604312862814 1:25.89301 2:152.685 3:0.3063563 4:98.6862 
0.4916218975317614 1:32.0573 2:76.31439 3:-0.2440116 4:168.5713 
0.5048981198335145 1:48.20102 2:222.944 3:-0.1781767 4:148.9522 
0.4887742933845461 1:28.2326 2:85.70309 3:0.1600414 4:105.951 
0.4827541880164298 1:30.798 2:176.551 3:-0.07568594 4:121.9968 
0.5045508816413834 1:23.827 2:131.212 3:0.4911059 4:161.5647 
0.504676571745751 1:33.826 2:89.224 3:-0.3405301 4:163.6356 
0.3059636207914553 1:30.31903 2:103.784 3:-0.2279925 4:138.0069 
0.5048274318494895 1:31.189 2:94.01399 3:0.4605505 4:170.1643 
0.501605420783382 1:44.89 2:130.229 3:-0.1022978 4:141.0062 
0.5046564971264105 1:31.19397 2:56.98401 3:0.05549404 4:97.49416 
0.5014112130310062 1:28.076 2:55.2305 3:0.2976711 4:141.756 
0.4126039420116955 1:22.0404 2:81.48911 3:-0.1002183 4:124.5127 
0.5044010545382052 1:53.90302 2:249.735 3:-0.1537405 4:111.9222 
0.5009805038138194 1:23.2857 2:110.878 3:-0.2955763 4:145.4173 
0.5046719470203757 1:66.64001 2:125.0699 3:-0.1346738 4:147.6997 
0.2930928950288914 1:28.74301 2:101.285 3:0.1396532 4:111.6997 
0.2660230779853088 1:35.2309 2:149.5759 3:-0.1046193 4:144.5548 
0.4720865956268248 1:41.05501 2:153.411 3:0.1804264 4:137.0373 
0.3537220230890502 1:22.416 2:51.8446 3:0.1481098 4:118.6542 
0.470348154169944 1:20.4691 2:72.0845 3:-0.3224114 4:143.9643 
0.4669287360220506 1:29.66199 2:173.457 3:0.1350171 4:119.9231 
0.4143002151169558 1:29.44701 2:144.551 3:0.2625119 4:128.575 
0.50366824226878 1:61.95105 2:263.96 3:-0.08549134 4:165.767 
0.5048907654452122 1:75.97998 2:353.79 3:-0.2745448 4:179.761 
0.5036528848875804 1:26.7713 2:115.1162 3:-0.2809191 4:90.34196 
0.5048915585579354 1:26.26498 2:265.965 3:0.2148565 4:91.22911 
0.5020833185819953 1:54.724 2:264.645 3:0.1446313 4:162.515 
0.5046759096750003 1:35.476 2:210.752 3:0.1131722 4:123.1559 
0.3407252978209266 1:0 2:102.072 3:0.1903382 4:142.0142 
0.5046749563442245 1:19.72701 2:89.55602 3:0.2754506 4:175.284 
0.5048999777249206 1:0 2:134.522 3:-0.1889924 4:145.3486 
0.5048111423660311 1:63.241 2:261.38 3:-0.1638191 4:157.2964 
0.504898392878206 1:54.129 2:327.641 3:0.1061524 4:136.5127 
0.3673695894782625 1:117.89 2:351.997 3:-0.1411603 4:170.4417 
0.5048969878844698 1:54.91599 2:221.034 3:0.1214149 4:142.0691 
0.4339311387079796 1:31.63098 2:131.915 3:0.1433506 4:102.0508 
0.5048930405741869 1:59.045 2:172.696 3:-0.2910136 4:173.7789 
0.5045635880384962 1:30.8692 2:111.9612 3:-0.3508342 4:164.2289 
0.4858979613221837 1:26.80499 2:117.837 3:0.1675056 4:94.60471 
0.4499317641146005 1:23.04501 2:92.10899 3:0.3757275 4:138.4601 
0.3434172426717717 1:45.61099 2:134.505 3:-0.1342714 4:162.1772 
0.4565842536519319 1:19.23199 2:51.043 3:0.4913905 4:91.70428 
0.5048994755026507 1:264.35 2:382.98 3:-0.1856 4:163.5065 
0.5048993465928627 1:48.12 2:82.46997 3:0.188316 4:142.9151 
0.5046946820943236 1:41.492 2:235.379 3:0.2123854 4:162.265 
0.5048907235441602 1:124.7599 2:323.97 3:-0.1625812 4:163.5972 
0.4877772109611386 1:83.42004 2:247.65 3:-0.141773 4:150.6578 
0.4391788299166068 1:38.612 2:162.349 3:0.09505654 4:110.6423 
0.3124321393909682 1:148.42 2:383.84 3:-0.1663617 4:174.9297 
0.5044490416279312 1:107.372 2:250.022 3:0.215817 4:157.3403 
0.5047354613635193 1:18.1034 2:114.3904 3:0.1428662 4:67.05608 
0.4420160707912062 1:24.07399 2:152.073 3:-0.2106128 4:144.4312 
0.4870359570373738 1:26.604 2:156.405 3:0.1211574 4:101.724 
0.5048917184621988 1:120.9975 2:45.2385 3:-0.4233237 4:89.6086 
0.4739276271231581 1:22.54799 2:128.383 3:0.2913564 4:132.0577 
0.5047025862494904 1:25.837 2:160.46 3:0.2121649 4:149.0043 
0.3938280399726568 1:43.729 2:196.751 3:0.06026977 4:117.7423 
0.3677292552353127 1:28.448 2:63.763 3:0.1883127 4:126.1057 
0.2602256952968872 1:21.83102 2:103.733 3:0.1643294 4:86.16159 
0.5048921917083281 1:41.51999 2:372.669 3:-0.1526712 4:159.2218 
0.5048870672641748 1:96.29401 2:370.749 3:0.1125926 4:140.4129 
0.4899565372624875 1:32.687 2:91.33099 3:-0.195174 4:125.5976 
0.3887648737221109 1:19.155 2:116.077 3:-0.2510476 4:74.08743 
0.5043167049022754 1:0 2:113.399 3:0.3370253 4:93.47311 
0.5048897538140238 1:142.4589 2:37.9739 3:0.1340409 4:130.9068 
0.5004288653730958 1:99.20996 2:342.4501 3:0.1080154 4:148.3809 
0.3098670556194718 1:43.35101 2:189.322 3:0.0987077 4:105.6516 
0.5048952972331874 1:55.23102 2:96.35602 3:0.1482502 4:134.8949 
0.4782386733680898 1:25.60901 2:113.118 3:0.2886409 4:106.5168 
0.3509346625617802 1:31.49899 2:119.921 3:0.10601 4:157.1646 
0.4753145192490834 1:60.33997 2:199.7699 3:0.124846 4:120.2911 
0.5000090870285897 1:48.45502 2:184.937 3:-0.2076296 4:121.8045 
0.5035656255255347 1:25.3896 2:100.5721 3:0.1707752 4:153.9702 
0.3610669412300643 1:41.51801 2:189.502 3:-0.1700965 4:130.6514 
0.4967009859953714 1:43.82501 2:183.851 3:-0.09593499 4:113.117 
0.4979897641428834 1:41.66 2:132.705 3:0.1524709 4:135.4662 
0.5048910999589532 1:45.991 2:251.854 3:0.2571067 4:167.7336 
0.5049021403386444 1:133.71 2:492.87 3:-0.1666256 4:172.51 
0.4915972369776201 1:20.6591 2:40.1293 3:0.2817537 4:101.6223 
0.7035784309560045 1:21.0356 2:39.7326 3:0.3944905 4:111.6997 
0.3674612241049613 1:19.7207 2:64.2594 3:0.1722801 4:150.7265 
0.4628641047420007 1:24.9566 2:106.8158 3:-0.2852927 4:94.13229 
0.5046032116801922 1:58.896 2:203.396 3:-0.1565229 4:150.7292 
0.3670830543266316 1:27.769 2:116.185 3:0.1037269 4:127.8553 
0.5028737198238702 1:78.298 2:228.247 3:0.08828935 4:148.9 
0.8518575365716429 1:21.643 2:31.07 3:0.6301231 4:160.5979 
0.5048896865298991 1:25.4552 2:30.8162 3:0.209136 4:95.25842 
0.504891593636289 1:46.96002 2:267.21 3:-0.1651649 4:163.7784 
0.504759248995627 1:55.009 2:245.492 3:0.1818731 4:121.1508 
0.5048919800760209 1:51.30902 2:273.349 3:-0.145599 4:122.5791 
0.4952152040282332 1:31.22101 2:214.572 3:-0.235904 4:90.75395 
0.5047219448090386 1:23.864 2:213.301 3:-0.2544321 4:91.18242 
0.5048740039237308 1:49.35498 2:164.413 3:-0.1657754 4:155.8077 
0.4481956031005047 1:33.66699 2:183.122 3:-0.1638789 4:152.0092 
0.504513603879887 1:21.36398 2:163.215 3:0.1409295 4:83.61272 
0.5048156330944596 1:22.66 2:190.525 3:-0.338962 4:85.08492 
0.5048834557457561 1:50.347 2:56.084 3:0.2291461 4:131.7693 
0.5048930753423894 1:242.01 2:268.73 3:-0.189671 4:170.7768 
0.49364993779651 1:31.78998 2:140.194 3:0.1463887 4:95.77478 
0.5048530251243537 1:45.43298 2:150.0359 3:0.2479176 4:156.4971 
0.5019355046561857 1:48.44101 2:189.554 3:0.08351105 4:108.2802 
0.5042580141377785 1:122.958 2:327.22 3:-0.2420466 4:171.1366 
0.3669045519572744 1:40.91998 2:165.169 3:-0.05848904 4:109.6919 
0.5032416193155343 1:41.04001 2:218.853 3:-0.116194 4:99.23003 
0.5170453600306464 1:21.12 2:50.954 3:0.2488138 4:113.268 
0.5046617349762063 1:72.09998 2:252.774 3:-0.1954655 4:110.1424 
0.5047189743142105 1:62.41602 2:338.124 3:-0.1001212 4:128.4678 
0.446589208990773 1:23.904 2:35.174 3:-0.199371 4:107.7693 
0.505025620872356 1:33.80399 2:280.591 3:-0.1098068 4:104.0778 
0.5044490576183995 1:24.448 2:52.96198 3:-0.2619794 4:157.3239 
0.5008224180658254 1:23.50499 2:96.856 3:-0.246409 4:93.38796 
0.4990227223813035 1:59.155 2:224.793 3:-0.1227197 4:151.1962 
0.5040522021062042 1:36.43301 2:97.86201 3:-0.2364067 4:150.1112 
0.5042529040328758 1:125.3459 2:359.273 3:0.1187388 4:142.2943 
0.504889056268212 1:145.0701 2:246.7301 3:-0.1491587 4:178.6212 
0.4849411800517411 1:22.48201 2:115.235 3:0.3583543 4:165.1572 
0.4716598986581858 1:19.4481 2:88.4821 3:0.2652582 4:107.8901 
0.5041857363603117 1:54.3213 2:136.2933 3:-0.1169782 4:159.1366 
0.4899636108976791 1:41.65399 2:135.881 3:0.08194737 4:151.7263 
0.5046947735018409 1:85.75702 2:239.3781 3:0.2082306 4:156.3021 
0.3715142184987332 1:35.10403 2:160.794 3:0.1496299 4:131.4836 
0.504817211807446 1:67.72101 2:327.982 3:0.1660938 4:117.734 
0.4885805038533463 1:22.2243 2:79.0878 3:-0.2075828 4:152.0064 
0.3083474539808417 1:28.381 2:83.07899 3:-0.1879144 4:102.9462 
0.5014903909912558 1:58.27496 2:307.717 3:0.1163814 4:126.8748 
0.4311522599125437 1:26.43799 2:150.249 3:-0.1052234 4:97.37057 
0.5045000468194144 1:46.845 2:196.777 3:-0.0870846 4:165.8604 
0.5016656728120641 1:29.112 2:132.348 3:-0.1500824 4:115.8883 
0.5048661854240193 1:146.99 2:308.16 3:-0.1297912 4:153.4896 
0.487690947934745 1:31.55701 2:205.633 3:0.1637851 4:152.8853 
0.437633472119073 1:22.8991 2:123.9511 3:-0.1665575 4:132.4999 
0.5011852057243662 1:38.798 2:226.615 3:-0.07278331 4:119.6539 
0.4275174792915013 1:75.22998 2:297.7001 3:-0.1615676 4:161.6306 
0.4971915005597417 1:29.91299 2:136.499 3:0.2430576 4:122.5708 
0.4116632849137549 1:20.1414 2:66.4 3:-0.2353871 4:141.2177 
0.506243453194646 1:0 2:92.3334 3:-0.2203686 4:114.2678 
0.5048359649145804 1:131.653 2:54.701 3:0.2117808 4:151.3939 
0.4833750971580715 1:39.98499 2:210.578 3:0.2501134 4:144.8981 
0.3491161542447353 1:27.396 2:48.5871 3:-0.1759749 4:107.6731 
0.4968270245335221 1:52.767 2:234.527 3:-0.1330922 4:119.4534 
0.4848489441682007 1:49.30801 2:215.808 3:-0.1343765 4:125.0922 
0.4108239070604738 1:32.2326 2:130.3156 3:-0.1148222 4:142.5004 
0.5048372167451263 1:19.806 2:84.918 3:0.6332026 4:179.7308 
0.4151769415629293 1:22.9261 2:101.2691 3:0.283987 4:90.65781 
0.4908926216551929 1:16.5471 2:69.511 3:-0.2989768 4:88.97963 
0.3726005142881018 1:20.97101 2:48.12 3:0.2111316 4:124.8478 
0.3958531135893012 1:25.88998 2:145.31 3:0.1604495 4:99.89746 
0.5048483752230322 1:117.75 2:196.76 3:-0.1697249 4:165.8824 
0.5046366694704996 1:33.87001 2:182.588 3:0.08988446 4:105.4456 
0.5048445937950625 1:79.64099 2:259.646 3:-0.20852 4:135.7546 
0.5043879209345512 1:75.42096 2:270.971 3:-0.1468442 4:146.6835 
0.7286582444510061 1:16.2825 2:61.4856 3:0.3145723 4:32.69581 
0.3946424811216174 1:36.94299 2:170.159 3:-0.1298789 4:118.4866 
0.5048349415460399 1:17.83298 2:225.681 3:0.2611819 4:101.2323 
0.3834860558292171 1:21.4258 2:55.5162 3:-0.2065336 4:130.0087 
0.4419627835526558 1:56.183 2:169.292 3:-0.1844508 4:153.149 
0.4885534012127504 1:61.93896 2:203.118 3:0.1220424 4:120.3269 
0.5047408288473041 1:35.83299 2:238.96 3:0.1522729 4:159.2822 
0.3986084446885673 1:137.7 2:368.7899 3:-0.145754 4:158.2357 
0.471402303191511 1:21.5214 2:87.9574 3:0.1354904 4:115.1302 
0.500581129305353 1:36.13202 2:198.432 3:0.1305431 4:104.531 
0.5045394456193648 1:29.85201 2:164.775 3:-0.2566063 4:155.5303 
0.4480531740680324 1:20.217 2:121.656 3:0.1624463 4:97.86496 
0.4585638646743467 1:25.33 2:110.725 3:0.1170016 4:97.63424 
0.4742946337522933 1:24.17101 2:132.558 3:0.1833637 4:125.3449 
0.5048601995262576 1:103.403 2:123.007 3:-0.2109031 4:157.431 
0.5408949091562527 1:18.90796 2:80.34601 3:0.184695 4:62.84001 
0.5047741010163757 1:59.79004 2:85.98999 3:0.1966094 4:147.0515 
0.493478969020003 1:55.823 2:121.783 3:0.1457291 4:118.7228 
0.5048354143084128 1:229.37 2:257.34 3:-0.2694986 4:178.0691 
0.5047811683688541 1:116.173 2:258.424 3:-0.1646519 4:172.0293 
0.5044595440918987 1:32.52101 2:248.108 3:0.1130798 4:108.9119 
0.5047117017201797 1:68.95197 2:318.898 3:0.1222772 4:142.1488 
0.3206635371605071 1:19.0238 2:79.65839 3:-0.2894069 4:126.1552 
0.2487500706821651 1:23.10101 2:60.334 3:0.2377822 4:127.7208 
0.5046072523228025 1:52.687 2:126.183 3:0.07018167 4:163.4543 
0.5043257654394222 1:53.888 2:213.106 3:0.144878 4:153.5335 
0.4261016199539349 1:28.032 2:84.03 3:0.3081662 4:130.8409 
0.4710385534755582 1:24.8449 2:84.84921 3:-0.3033278 4:152.1382 
0.4795511582344458 1:26.35001 2:211.189 3:-0.1818901 4:158.0847 
0.5037612800615044 1:28.9233 2:177.5503 3:0.1047901 4:134.1122 
0.5049006021595102 1:18.20801 2:194.996 3:0.07515021 4:67.96796 
0.4787548367069207 1:23.9714 2:105.2884 3:0.1941106 4:161.3504 
0.5048361063305011 1:16.06702 2:193.432 3:0.3052224 4:22.58824 
0.5036610354119115 1:37.909 2:93.16699 3:-0.1770918 4:144.6674 
0.5029475231727736 1:44.339 2:214.353 3:0.1158583 4:145.4694 
0.5048221779688138 1:50.27101 2:159.565 3:-0.1626734 4:167.8077 
0.3983491716075034 1:135.799 2:368.4061 3:-0.1238228 4:156.9998 
0.504744557465591 1:99.02298 2:278.762 3:-0.08752339 4:157.041 
1 1:16.6815 2:43.877 3:-0.1423949 4:38.7631 
0.5048345692911613 1:61.84601 2:254.116 3:-0.1904301 4:157.6672 
0.5048394707219754 1:99.73602 2:461.163 3:-0.152427 4:171.6091 
0.504837458947003 1:124.02 2:244.35 3:-0.1580021 4:147.8151 
0.4790049482015691 1:32.00101 2:137.612 3:-0.1402421 4:104.2976 
0.5045775572858689 1:29.228 2:252.266 3:0.2507415 4:91.34722 
0.5048871706508464 1:82.39301 2:238.279 3:0.2551616 4:162.2266 
0.4538855660821161 1:21.3013 2:102.4839 3:-0.1893143 4:117.1078 
0.5299998251505609 1:22.9708 2:49.5455 3:-0.2733093 4:114.6743 
0.4542635177630565 1:25.4795 2:86.8821 3:0.2853279 4:168.2719 
0.5047261482692325 1:75.41998 2:256.871 3:0.1797306 4:149.5592 
0.5048355111746549 1:141.12 2:412.623 3:-0.1730835 4:176.6354 
0.3139200844155327 1:22.036 2:92.201 3:-0.3391192 4:96.46418 
0.5048353449262919 1:47.20001 2:344.435 3:0.1668334 4:124.2106 
0.4400412674606131 1:0 2:101.38 3:-0.1234277 4:138.8748 
0.5048347304043883 1:134.611 2:581.0731 3:-0.1441794 4:166.3108 
0.5048215816543069 1:68.23999 2:247.595 3:0.05759451 4:127.2511 
0.3793907586953784 1:25.9282 2:88.9003 3:-0.3555239 4:145.9226 
0.1409898643593052 1:20.2218 2:67.9967 3:-0.2029868 4:94.34653 
0.4227619674668958 1:20.5644 2:93.16389 3:0.3833153 4:98.24124 
0.4868451541287591 1:30.54401 2:86.84502 3:-0.1384535 4:132.1291 
0.50482670063001 1:73.9483 2:80.8773 3:-0.3161046 4:167.794 
0.5048961972568891 1:110.457 2:335.376 3:-0.1464408 4:165.0556 
0.5046499979315893 1:22.6348 2:96.82181 3:-0.2135037 4:167.2749 
0.3215292861713324 1:23.105 2:54.4047 3:-0.3031989 4:105.322 
0.501116883077831 1:38.189 2:125.027 3:0.2569136 4:141.2479 
0.5019691337246797 1:27.98502 2:163.344 3:-0.237361 4:93.64889 
0.5034118773594686 1:55 2:304.91 3:0.1634281 4:129.5171 
0.5048679274710934 1:52.05695 2:271.7339 3:-0.1348218 4:172.1968 
0.3175716544944552 1:19.402 2:123.003 3:0.1972412 4:136.7352 
0.5042224675577681 1:80.1383 2:85.2203 3:0.1370369 4:140.8359 
0.504162316051347 1:0 2:74.8973 3:0.4430498 4:144.3159 
0.4012045031065194 1:36.80099 2:127.257 3:0.05376019 4:120.2637 
0.5046372904458521 1:49.3868 2:132.6848 3:-0.08265645 4:144.3461 
0.5048209859516 1:87.83197 2:407.772 3:-0.1481448 4:159.8096 
0.4871717322471422 1:27.4931 2:126.0981 3:-0.1430784 4:113.518 
0.5041284152165388 1:41.35301 2:113.471 3:-0.1386325 4:147.2273 
0.5046399548814506 1:86.08011 2:67.1131 3:0.2909212 4:157.041 
0.5048341580589364 1:0 2:114.673 3:0.3890661 4:75.04051 
0.5023211534092791 1:17.8354 2:104.4923 3:0.1987493 4:134.0792 
0.5048279267335813 1:46.85999 2:43.18994 3:-0.1247203 4:107.967 
0.5048906916632714 1:82.22101 2:279.1251 3:-0.136815 4:174.6963 
0.5044889428162642 1:13.01898 2:185.778 3:0.07066933 4:100.3397 
0.5047205528887825 1:41.211 2:101.906 3:-0.1737143 4:147.5981 
0.503886454882381 1:28.12431 2:66.6373 3:0.1877341 4:132.0275 
0.3891377083105647 1:20.4698 2:151.5261 3:0.1423591 4:162.2376 
0.4679415939599568 1:33.1188 2:98.1478 3:-0.1444683 4:133.5711 
0.5048194641335974 1:91.03604 2:434.303 3:0.188821 4:160.3452 
0.5049008249713203 1:55.26703 2:338.299 3:0.1695382 4:129.5802 
0.5043285436847471 1:20.37799 2:168.589 3:0.1750783 4:85.13161 
0.5048215436600594 1:118.1866 2:122.5416 3:0.1705225 4:160.6418 
0.5030848157270815 1:41.60394 2:217.171 3:0.07104542 4:103.6658 
0.5038172350601168 1:36.46701 2:183.588 3:0.172462 4:121.8018 
0.3240055097064481 1:19.945 2:88.8249 3:-0.3040593 4:133.0108 
1 1:19.784 2:35.068 3:0.2976086 4:151.6411 
0.5026730024529218 1:71.29898 2:247.941 3:-0.2894139 4:161.6498 
0.5048174604501551 1:117.683 2:351.136 3:-0.1712611 4:146.4472 
0.3648083053268664 1:21.923 2:133.677 3:0.2584425 4:90.36668 
0.5042365311501372 1:95.96002 2:389.99 3:-0.07932715 4:157.0437 
0.2655106223065493 1:24.5392 2:119.5048 3:-0.1799122 4:100.5402 
0.5046702374554758 1:25.6207 2:137.7801 3:-0.2687805 4:163.3362 
0.4343461490352613 1:43.96497 2:194.524 3:0.08480196 4:127.1247 
0.501873832069912 1:36.808 2:207.527 3:-0.179283 4:100.3671 
0.4219657765378894 1:26.27899 2:146.862 3:-0.1688726 4:127.8938 
0.460343552048135 1:23.194 2:134.078 3:0.2745055 4:119.1431 
0.4842841804506836 1:22.4562 2:67.17271 3:-0.2290339 4:131.2721 
0.5048060939152741 1:48.85901 2:144.992 3:0.2054155 4:140.9155 
0.4917895816633116 1:39.8132 2:136.2772 3:0.1003268 4:148.1364 
0.5045110138743351 1:21.12599 2:63.72501 3:0.5735579 4:179.4671 
0.4865059371366917 1:26.914 2:131.683 3:-0.1456149 4:98.01877 
0.472820404908894 1:27.039 2:159.746 3:-0.1245521 4:125.1939 
0.5047837686383521 1:49.9534 2:79.494 3:-0.1023785 4:171.7739 
0.5047857801588708 1:74.68896 2:291.669 3:0.1423936 4:133.4502 
0.4311319806848762 1:19.2706 2:72.6143 3:0.3960886 4:88.40284 
0.285368066926143 1:31.388 2:273.818 3:-0.2224535 4:95.42596 
0.495570659805518 1:28.7415 2:88.2518 3:-0.2633919 4:135.653 
0.2747575420080894 1:21.13931 2:58.7444 3:-0.1614604 4:115.9295 
0.5037360858580971 1:20.34799 2:179.635 3:-0.1711893 4:81.16548 
0.4511682875697668 1:25.9409 2:116.874 3:0.08309755 4:150.3777 
0.5042310563867092 1:27.11801 2:231.509 3:-0.1039278 4:122.2248 
0.4564914433747512 1:18.605 2:104.528 3:0.3040232 4:126.8363 
0.489915947133963 1:29.405 2:127.867 3:0.1509215 4:135.9249 
0.4855342754423069 1:28.112 2:107.826 3:0.2291167 4:115.3362 
0.3771715843108183 1:34.03003 2:133.8 3:0.1826925 4:98.91692 
0.5006980474437634 1:29.15401 2:96.634 3:-0.2439397 4:111.3372 
0.5047889056618611 1:42.829 2:176.471 3:-0.1472107 4:144.6235 
0.4550065710430342 1:23.849 2:152.702 3:0.2881998 4:148.0018 
0.3799488710191584 1:23.4794 2:88.2974 3:0.1567694 4:127.5587 
0.4570608227900314 1:20.40901 2:157.486 3:0.2977301 4:135.5322 
0.5047889056738398 1:150.8652 2:92.63819 3:0.2355737 4:116.6134 
0.8321357548422436 1:26.1424 2:58.255 3:-0.1475393 4:139.0451 
0.4754764244567925 1:28.61501 2:119.225 3:-0.2976728 4:160.3781 
0.5047805312661726 1:102.7 2:132.6499 3:-0.1412135 4:138.1222 
0.2934368514351408 1:34.55199 2:142.721 3:-0.1333303 4:111.9112 
0.4728567855087654 1:33.61699 2:126.371 3:0.058635 4:111.5184 
0.5044644444575529 1:84.70996 2:229.26 3:0.1488553 4:140.119 
0.4629638200123807 1:21.511 2:66.43651 3:-0.2714708 4:100.0403 
0.5040708785367198 1:26.58899 2:160.218 3:0.1097486 4:109.3321 
0.5010211032335408 1:39.66901 2:118.702 3:-0.1173532 4:122.9087 
0.5151903730043021 1:24.1321 2:14.2132 3:0.2080286 4:129.0474 
0.504697723210902 1:39.78271 2:140.2927 3:-0.1734174 4:173.1444 
0.4693318230719949 1:26.1711 2:162.9081 3:0.1086621 4:125.29 
0.4225103070216062 1:29.871 2:134.471 3:-0.1003982 4:131.7281 
0.4338321314280722 1:26.139 2:96.55801 3:0.2669547 4:160.2463 
0.5022439083391087 1:56.627 2:242.817 3:-0.112933 4:153.1545 
0.4191404426109505 1:34.043 2:136.205 3:0.1304303 4:97.78531 
0.3319900514648604 1:69.836 2:353.007 3:-0.1421528 4:155.9451 
0.504789042956181 1:104.314 2:404.776 3:-0.2346179 4:172.282 
0.5045266726181841 1:39.634 2:230.514 3:0.103678 4:133.2277 
0.481979754822094 1:22.971 2:107.3 3:-0.2773538 4:163.9817 
0.5033455746855289 1:28.6536 2:66.9996 3:-0.2708353 4:165.4978 
0.4953583131148044 1:18.9669 2:119.4503 3:-0.1730325 4:106.6487 
0.5048344380650897 1:40.38 2:63.93994 3:0.1579376 4:121.7441 
0.4995319546797645 1:32.99698 2:278.607 3:-0.1251331 4:158.2412 
0.4305983306898045 1:19.4191 2:87.09061 3:-0.1548799 4:120.3186 
0.4623158545582228 1:21.9675 2:66.0056 3:-0.2576243 4:165.1737 
0.4360947072708227 1:23.069 2:77.62302 3:0.200287 4:138.5397 
0.5047862541950905 1:232.75 2:312.77 3:-0.198909 4:160.5182 
0.5044747201551496 1:18.134 2:184.205 3:0.2277043 4:119.0634 
0.5047877172800581 1:30.10699 2:174.125 3:-0.1821503 4:159.9496 
0.4772353274380692 1:30.03401 2:79.91701 3:0.1887779 4:115.8196 
0.3395810459755076 1:35.058 2:123.872 3:0.1300825 4:137.2543 
0.5050481503709807 1:80.1001 2:92.47009 3:-0.2285742 4:148.6171 
0.5385622709220246 1:18.9148 2:44.3015 3:0.4090978 4:145.1069 
0.4436779921479682 1:45.87598 2:176.506 3:0.08486763 4:127.3252 
1 1:16.8425 2:57.3256 3:0.4408547 4:45.32204 
0.5047335993295776 1:36.043 2:253.842 3:-0.1667797 4:164.9348 
0.4841122485684439 1:89.05597 2:305.335 3:-0.09487846 4:158.6478 
0.4618740106712424 1:23.311 2:183.419 3:-0.1927194 4:155.0497 
0.2801004068199994 1:25.40201 2:75.804 3:-0.2053066 4:118.7778 
0.5045952458614867 1:42.33501 2:165.19 3:-0.1320027 4:164.748 
0.4216691880233408 1:19.8934 2:66.81 3:0.6915999 4:88.82582 
0.5047863805970566 1:16.92599 2:212.269 3:0.2144584 4:46.22843 
0.5047358481912041 1:105.5439 2:350.2139 3:-0.2461411 4:168.2362 
0.4809221355512348 1:19.3224 2:73.12469 3:-0.1104538 4:101.6306 
0.5041514084854635 1:27.892 2:198.562 3:0.1374906 4:111.8508 
0.5041565012960032 1:43.112 2:213.628 3:0.2442888 4:164.8441 
0.505084106745332 1:12.15399 2:126.68 3:0.09334982 4:100.1227 
0.1891711092084539 1:22.9561 2:93.0764 3:-0.08107382 4:119.4836 
0.5047448662882058 1:56.32001 2:268.979 3:-0.1445709 4:157.0904 
0.5009813313539498 1:55.978 2:250.073 3:-0.1340766 4:125.4273 
0.4916167732439465 1:35.59998 2:75.8999 3:0.2358466 4:167.3408 
0.504790205651412 1:57.8261 2:76.3661 3:0.1893438 4:174.9627 
0.6613221730203406 1:20.23999 2:34.38 3:0.08369496 4:79.01762 
0.452004294070553 1:26.15201 2:174.647 3:0.1930462 4:114.7265 
0.3303482907820839 1:26.664 2:173.52 3:-0.1966496 4:122.3291 
0.1985784571620366 1:22.2154 2:92.2673 3:-0.1663456 4:103.6411 
0.5045256279116913 1:68.01001 2:122.1 3:0.1092635 4:143.1678 
0.4059544680599461 1:36.327 2:207.765 3:0.1430746 4:134.0215 
0.1675274549762175 1:23.1825 2:52.06091 3:0.2709614 4:96.4889 
0.375931108207916 1:29.3 2:140.004 3:0.115444 4:118.6322 
0.5045734154914263 1:26.0416 2:101.5712 3:-0.2447489 4:179.6265 
0.5046735523225317 1:64.4476 2:101.0816 3:0.2190093 4:92.65461 
0.5056474254203304 1:24.62101 2:45.91801 3:0.1585492 4:136.3589 
0.5029990029785957 1:31.42001 2:170.517 3:0.07166761 4:109.7468 
0.5048927982690486 1:17.017 2:116.682 3:0.2022699 4:48.35157 
0.5047785641255098 1:37.1825 2:37.09451 3:0.3805078 4:178.2065 
0.4243662762472241 1:27.1331 2:68.1601 3:-0.2548164 4:139.2374 
0.5046820699123382 1:57.604 2:296.194 3:0.2575167 4:144.3076 
0.5047788639088802 1:55.966 2:178.857 3:0.1260944 4:130.7503 
0.4343468655939443 1:28.88898 2:128.421 3:-0.1845035 4:131.6375 
0.4963475128208866 1:28.20801 2:146.402 3:0.09174325 4:105.6709 
0.313275499700248 1:21.9443 2:102.0659 3:-0.1372929 4:157.5518 
0.4178522853226205 1:27.9849 2:72.5699 3:0.09422857 4:121.9556 
0.5048998696869129 1:84.155 2:282.35 3:0.06754287 4:136.9604 
0.5022050095871354 1:31.34399 2:174.942 3:0.2300307 4:108.0165 
0.5047719536511874 1:15.25098 2:195.058 3:-0.2851069 4:90.32822 
0.4355018463925291 1:20.23201 2:124.481 3:0.3574828 4:132.5631 
0.5299345600359247 1:21.2117 2:17.6556 3:0.1813899 4:144.7828 
0.504764876181819 1:68.92401 2:116.968 3:-0.1196695 4:118.981 
0.5048904848632814 1:95.21802 2:290.488 3:-0.1339182 4:144.2664 
0.5042664478526597 1:20.08701 2:50.79599 3:0.258852 4:131.0057 
0.475721198056109 1:29.72899 2:156.544 3:0.1247736 4:137.6059 
0.4684346324777419 1:22.4544 2:43.6843 3:-0.1938154 4:114.8748 
0.4912478281474196 1:30.3359 2:90.31129 3:0.2112557 4:145.9281 
0.4948036756526391 1:18.42599 2:180.526 3:0.3606666 4:142.8739 
0.4874188350749152 1:31.6179 2:115.8819 3:0.08894084 4:127.7098 
0.5045004509899902 1:33.461 2:231.562 3:0.1023083 4:130.2834 
0.335968803463142 1:23.5512 2:108.1505 3:0.1186875 4:133.5436 
0.7572993140811367 1:20.4245 2:30.2525 3:-0.08889898 4:101.7899 
0.4460520475776781 1:19.7795 2:78.8501 3:0.2738194 4:109.6068 
0.5020266809411875 1:34.64001 2:98.22998 3:0.1226134 4:100.1254 
0.4435507011440094 1:44.81897 2:174.162 3:-0.1748044 4:126.2074 
0.5048502646783218 1:52.41498 2:231.214 3:-0.1918154 4:157.0657 
0.5047534024855737 1:66.789 2:201.069 3:0.1114902 4:115.0671 
0.4965881193150689 1:21.3086 2:97.2892 3:0.1824857 4:113.68 
0.7924042109443695 1:19.6087 2:45.3507 3:0.2536992 4:84.10986 
0.479966099081396 1:0 2:111.707 3:0.1651158 4:164.5997 
0.5008020980107065 1:74.73901 2:262.163 3:-0.1170548 4:142.5827 
0.5047715615842294 1:39.937 2:132.112 3:-0.149623 4:159.9799 
0.2711449985028844 1:21.7441 2:108.8241 3:-0.1272998 4:132.1483 
0.4959004120775325 1:30.0053 2:109.5407 3:0.153929 4:128.5173 
0.5048680800157727 1:29.948 2:119.051 3:0.1688236 4:109.7331 
0.483940944485553 1:34.16199 2:173.64 3:-0.3074167 4:90.96544 
0.5047797712018203 1:89.625 2:405.73 3:-0.1854199 4:179.0057 
0.5047796564380671 1:168.71 2:234.92 3:-0.1644061 4:168.6455 
0.5047818143034832 1:0 2:72.2849 3:-0.1122887 4:124.7517 
0.4978153672897472 1:36.17101 2:146.059 3:0.0980344 4:158.7494 
0.440405326882418 1:32.64401 2:232.12 3:-0.1360459 4:145.9666 
0.5047828358096881 1:85.5618 2:91.2538 3:0.1991356 4:160.9577 
0.454047509818521 1:25.6959 2:130.1129 3:-0.1618687 4:105.3166 
0.5047814850079906 1:97.06369 2:104.8517 3:-0.2179046 4:153.4429 
0.4961008683510066 1:16.39999 2:105.684 3:0.3887915 4:90.1387 
0.5033030978291368 1:16.80699 2:135.2 3:-0.3166419 4:148.7269 
0.44851889486622 1:34.519 2:117.717 3:0.1154571 4:135.1586 
0.5042610017508059 1:19.51601 2:147.62 3:0.3370514 4:80.00092 
0.4999582898419438 1:40.04401 2:209.288 3:-0.1656088 4:132.585 
0.27200901347357 1:29.444 2:156.192 3:-0.09920408 4:108.0357 
0.4723543812848275 1:24.0832 2:83.7874 3:-0.1122327 4:121.7276 
0.50480744765446 1:20.96802 2:185.766 3:-0.1732991 4:148.0348 
0.5046779074323271 1:106.783 2:330.5829 3:-0.1565571 4:173.8146 
0.421377873580685 1:31.373 2:99.34099 3:0.2776677 4:164.4129 
0.5048671187318571 1:0 2:81.8397 3:0.3168046 4:136.7929 
0.4513569079427692 1:33.423 2:112.148 3:0.1588257 4:133.7496 
0.5048985003820805 1:50.599 2:356.081 3:0.2210068 4:153.6571 
0.5048329101060595 1:59.86301 2:214.674 3:-0.2567984 4:168.1785 
0.5014235542328462 1:47.21199 2:128.928 3:0.2200153 4:137.3587 
0.5047803002207364 1:135.635 2:437.9451 3:-0.2133996 4:170.0682 
0.4304716031957768 1:23.784 2:66.65405 3:0.1822254 4:97.92538 
0.4421125744882827 1:29.257 2:102.056 3:0.1444305 4:117.0034 
0.5048572438861686 1:28.5169 2:23.0529 3:0.2318703 4:104.5173 
0.5044925370451167 1:30.01001 2:51.63 3:-0.06008602 4:98.14236 
0.4449229004350997 1:29.33299 2:60.645 3:0.1934533 4:123.6365 
0.430498852299205 1:24.297 2:87.41699 3:-0.3408321 4:99.65026 
0.5020300030511955 1:18.08499 2:142.925 3:0.1834017 4:81.94278 
0.5154102847622458 1:25.47998 2:20.34998 3:0.1000151 4:94.10483 
0.4923672531294072 1:18.72 2:128.041 3:0.1903015 4:161.4438 
0.5046854431850124 1:19.94501 2:186.055 3:0.1162088 4:102.526 
0.4863613208788965 1:47.491 2:212.091 3:0.1604779 4:115.3994 
0.4905495203836228 1:63.92401 2:198.59 3:-0.08822914 4:120.0522 
0.5047466495200339 1:150.23 2:520.54 3:-0.2007677 4:172.9 
0.4992665787367575 1:32.92299 2:131.191 3:-0.1079135 4:109.9995 
0.4961706424579773 1:23.3541 2:116.3886 3:-0.1982317 4:153.377 
0.4766953464759397 1:80.91202 2:293.96 3:-0.1225463 4:151.0204 
0.4871624784212236 1:21.12001 2:163.938 3:0.3242649 4:146.0188 
0.5047242075747866 1:110.21 2:417.6 3:-0.1650197 4:166.3822 
0.4913663866416506 1:24.66351 2:61.84251 3:-0.2614432 4:151.696 
0.4910616833766998 1:30.4276 2:99.7376 3:0.1603495 4:106.3548 
0.4977200288971189 1:24.73001 2:178.245 3:0.1467229 4:99.04326 
0.4369664486955215 1:45.522 2:193.01 3:0.05224883 4:129.2616 
0.5045414598958161 1:104.441 2:131.9009 3:0.2652953 4:147.2932 
0.3990500168208028 1:54.87396 2:243.387 3:0.09189203 4:132.9421 
0.5027931795186856 1:28.01099 2:189.006 3:0.214919 4:117.5308 
0.5048923660594963 1:89.384 2:318.322 3:-0.1992902 4:163.5285 
0.3755859907745967 1:22.9972 2:33.5553 3:0.2461369 4:110.7246 
0.440969412938392 1:27.5186 2:89.57629 3:-0.1690258 4:149.919 
0.5011901940863294 1:38.159 2:131.664 3:-0.1802001 4:129.8988 
0.4381256507993175 1:20.8338 2:65.9273 3:-0.4782349 4:92.57771 
0.504187895032241 1:30.62402 2:233.835 3:0.1309913 4:119.1321 
0.5048953079031847 1:73.56702 2:347.598 3:0.1135295 4:142.1653 
0.4808417394282305 1:23.85901 2:186.872 3:-0.125839 4:96.00275 
0.4921518827667721 1:61.18597 2:248.206 3:-0.2148715 4:144.2362 
0.4482078603727957 1:19.5487 2:114.119 3:0.1276992 4:111.3976 
0.4309873212503205 1:20.4237 2:70.16679 3:-0.4495321 4:95.50835 
0.4991238495656808 1:24.99799 2:135.127 3:-0.2365552 4:149.9272 
0.5041285918068703 1:23.02 2:95.43301 3:-0.2137221 4:144.3076 
0.5047435289873391 1:145.26 2:201.25 3:-0.1567783 4:169.5546 
0.4391350893234406 1:28.99899 2:144.166 3:-0.2766673 4:95.08537 
0.4195488015071909 1:25.98241 2:91.1124 3:-0.147398 4:144.6949 
0.503869058020642 1:33.41699 2:175.35 3:0.134072 4:112.6171 
0.5046833487382356 1:0 2:103.196 3:-0.2392862 4:123.7601 
0.5047368519246266 1:161.0801 2:395.7301 3:-0.1674849 4:169.1838 
0.5047500939446504 1:70.155 2:228.11 3:0.2110792 4:162.2129 
0.4598167609571812 1:35.793 2:189.074 3:0.121691 4:119.8572 
0.5048890665209567 1:64.64001 2:295.176 3:0.1031919 4:143.3216 
0.504781539926074 1:68.35101 2:276.72 3:-0.08061547 4:122.5489 
0.504739522831923 1:57.73599 2:354.248 3:-0.1251562 4:148.6555 
0.5049226321592537 1:17.0626 2:97.4999 3:-0.1744615 4:103.9762 
0.5046105602403759 1:18.771 2:105.37 3:0.4768966 4:174.949 
0.4810382785544469 1:21.1127 2:75.5402 3:-0.2040242 4:143.4891 
0.4244260647987885 1:18.6507 2:76.714 3:0.2709156 4:102.3008 
0.5047334275226592 1:65.6185 2:86.37289 3:-0.1721603 4:136.716 
0.5047336763747473 1:47.00299 2:289.482 3:-0.1139623 4:129.0721 
0.5043797673478465 1:35.141 2:102.754 3:-0.1355987 4:109.2689 
0.5040121686985637 1:46.11298 2:129.385 3:0.1729937 4:109.8073 
0.5041718614294052 1:65.18005 2:94.12 3:0.1727259 4:126.287 
0.4779883253437281 1:25.36398 2:182.097 3:0.1786563 4:94.92332 
0.4972560067235214 1:37.38098 2:110.986 3:-0.1654937 4:131.36 
0.3900737194822504 1:21.68597 2:151.806 3:0.4442269 4:164.0421 
0.367932123085418 1:21.883 2:83.4063 3:-0.2080709 4:117.0886 
0.5016477462536193 1:59 2:252.511 3:0.1422766 4:127.6851 
0.5045837695100787 1:33.117 2:157.027 3:0.1905075 4:150.9242 
0.5047262254728326 1:70.10999 2:81.40002 3:0.1743807 4:124.7709 
0.5047623394494463 1:73.48596 2:252.368 3:0.2545852 4:156.39 
0.5048428983794646 1:72.255 2:223.116 3:0.0974308 4:125.886 
0.4951612790360608 1:19.25299 2:157.719 3:-0.09723214 4:72.60975 
0.490880783930399 1:63.05798 2:243.462 3:-0.1127913 4:120.5246 
0.2170272493456258 1:20.1885 2:67.9504 3:-0.2161085 4:139.6933 
0.5137212963062974 1:20.2417 2:56.6614 3:0.2882226 4:97.59304 
0.4922591372160038 1:26.6 2:76.43501 3:-0.2764095 4:94.24216 
0.3609068126748922 1:30.6738 2:119.5498 3:-0.1964853 4:124.0403 
0.4426783789181929 1:17.9675 2:85.1273 3:0.2459144 4:147.6722 
0.5119451666531122 1:26.97 2:48.4861 3:0.2148416 4:113.6745 
0.3712711857854609 1:21.39799 2:78.43898 3:0.2612525 4:107.3518 
0.4913343812858666 1:26.61499 2:156.145 3:-0.1268779 4:139.7565 
0.2339983613999778 1:25.082 2:76.01971 3:0.1478131 4:118.4317 
0.5047368519241792 1:135.22 2:193.35 3:-0.1078649 4:138.0975 
0.5008455285951668 1:50.76599 2:181.721 3:0.1594221 4:123.7244 
0.3451635452089393 1:27.64502 2:175.645 3:0.1963919 4:138.4683 
0.5048674558035582 1:65.25995 2:195.777 3:-0.1125935 4:125.5399 
0.5000872057942409 1:26.609 2:89.528 3:-0.2657994 4:161.8833 
0.4923953272388502 1:24.44501 2:160.46 3:0.1379274 4:93.36874 
0.5044294222131802 1:51.38397 2:260.226 3:0.1334375 4:113.4383 
0.5047373188531209 1:101.2702 2:73.11021 3:-0.1214578 4:96.26917 
0.5046689178645779 1:31.59801 2:94.306 3:0.3464143 4:157.2387 
0.5000000777662071 1:19.6112 2:73.3826 3:0.3115283 4:150.1881 
0.4556420389249982 1:27.8034 2:67.06129 3:0.2160348 4:158.6395 
0.5041885071579647 1:16.88 2:120.335 3:0.1191165 4:113.518 
0.149088184006045 1:24.91498 2:152.383 3:0.1103134 4:97.22774 
0.5020703201371766 1:42.73399 2:162.518 3:0.1583177 4:149.5839 
0.5050701096970371 1:43.6197 2:55.0496 3:-0.07599934 4:132.8652 
0.4937599990984443 1:62.05005 2:230.02 3:-0.1682614 4:161.1142 
0.5047524439944847 1:164.325 2:508.176 3:-0.1467182 4:158.0902 
0.4924911202433497 1:18.53198 2:130.846 3:0.3153937 4:158.8318 
0.4777377946046115 1:27.45001 2:138.658 3:0.184003 4:125.7377 
0.4978696521373647 1:37.922 2:117.339 3:0.2730737 4:138.1332 
0.4802261291736362 1:21.3004 2:77.41069 3:-0.3128298 4:156.6427 
0.5047438347338586 1:124.764 2:366.875 3:-0.1292045 4:145.8073 
0.4858306300338999 1:30.25198 2:202.271 3:0.1261649 4:153.7093 
0.5040425263420317 1:22.6178 2:58.501 3:0.3855601 4:161.3889 
0.4915895271048014 1:24.09497 2:87.29395 3:0.1016448 4:93.41817 
0.5000519840308295 1:98.91205 2:338.3041 3:0.1645009 4:147.1174 
0.5041326287022714 1:23.01199 2:155.418 3:0.1329096 4:126.7457 
0.5047495822398396 1:113.506 2:402.56 3:-0.09158337 4:147.3866 
0.4457767823332565 1:22.158 2:73.59 3:0.655875 4:165.2836 
0.4049233779368204 1:29.42799 2:216.328 3:0.07904761 4:139.3115 
0.5047386802941336 1:84.091 2:382.966 3:-0.1073858 4:142.2834 
0.3696644188113109 1:21.5488 2:117.3143 3:0.1100151 4:124.7077 
0.4605374031396678 1:16.3642 2:58.5712 3:0.3391393 4:32.40192 
0.4495762345127292 1:35.3345 2:114.0745 3:-0.1612212 4:135.2493 
0.5047814850079906 1:182.6201 2:434.14 3:-0.2855029 4:179.9231 
0.5048723218452501 1:47.53101 2:159.912 3:0.1529889 4:138.7677 
0.5043263338060753 1:39.17899 2:159.468 3:-0.209765 4:120.4504 
0.5018272524034657 1:23.25403 2:209.735 3:0.1233169 4:96.87343 
0.5046730120729116 1:18.477 2:181.036 3:0.2435196 4:165.9428 
0.5022254081633825 1:28.5013 2:103.052 3:0.1283102 4:144.7224 
0.5048141839265788 1:32.83201 2:63.92001 3:-0.2115773 4:148.5072 
0.5681963107588178 1:15.9557 2:63.09971 3:0.343257 4:154.6377 
0.406213084051759 1:22.63901 2:120.977 3:0.3271212 4:125.8283 
0.5048178806199954 1:82.574 2:196.307 3:0.1783759 4:165.3797 
0.4547713159693043 1:28.849 2:137.139 3:-0.2346449 4:130.0691 
0.5047828358096881 1:245.6 2:428.0801 3:-0.1648455 4:173.4026 
0.242935180733648 1:22.5022 2:64.6707 3:-0.1509099 4:112.7709 
0.504604720866499 1:63.703 2:289.815 3:-0.1624058 4:157.9748 
0.3251155418920399 1:18.2162 2:87.2622 3:-0.2339139 4:70.6981 
0.4007334505902263 1:22.4788 2:61.16409 3:-0.08436874 4:106.8931 
0.5048914523867331 1:156.66 2:423.75 3:-0.1204137 4:157.3239 
0.5046395482437919 1:31.19998 2:226.781 3:-0.1069043 4:128.7535 
0.5048913412126405 1:32.7101 2:233.7761 3:-0.06338482 4:167.9945 
0.5047459791755566 1:89.42419 2:58.9772 3:0.2008257 4:121.0245 
0.4434251387634845 1:41.31201 2:156.694 3:-0.1818962 4:141.0913 
0.5048903197709027 1:31.838 2:291.045 3:0.2235387 4:146.8867 
0.5047778393590457 1:112.055 2:323.6121 3:0.09374706 4:134.6862 
0.5047852686824188 1:64.64301 2:335.479 3:0.1267571 4:120.813 
0.50481526876924 1:19.33699 2:158.935 3:0.1209962 4:122.3044 
0.5046493809560803 1:97.6158 2:52.4688 3:0.1980819 4:139.6027 
0.1384203457683235 1:21.0394 2:79.0063 3:-0.2493014 4:125.1142 
0.5047855914528506 1:136.911 2:93.55 3:0.0849838 4:139.6191 
0.438303601661299 1:38.4443 2:136.8558 3:-0.09352873 4:128.4129 
0.5033852725622275 1:19.36099 2:134.668 3:0.228131 4:86.48844 
0.5039102099198074 1:56.83099 2:212.218 3:-0.1186152 4:126.8666 
0.4663440510605154 1:28.812 2:91.606 3:0.3995219 4:139.9295 
0.5047920093596527 1:59.31302 2:183.086 3:-0.1640772 4:146.1698 
0.4319629066871175 1:19.215 2:90.07098 3:0.1832845 4:118.9041 
0.4488282163402391 1:19.54401 2:128.647 3:0.2413382 4:123.0076 
0.4932477372455172 1:17.7691 2:70.4381 3:-0.2301479 4:146.2357 
0.4188232085761002 1:24.89301 2:109.849 3:-0.153579 4:94.58274 
0.7463711727217957 1:18.045 2:68.7258 3:0.4278488 4:121.9529 
0.4843420974228415 1:47.64404 2:216.571 3:0.1116667 4:122.0352 
0.4299236476368486 1:29.47801 2:144.707 3:-0.1845708 4:131.404 
0.5029564596384195 1:45.13898 2:193.736 3:0.1693683 4:122.2028 
0.5045634746855665 1:50.5088 2:56.5448 3:-0.1459508 4:138.9627 
0.4438449053476264 1:34.56801 2:145.2 3:0.1864333 4:137.7844 
0.5048063387370437 1:40.28601 2:286.943 3:-0.1450434 4:169.8567 
0.4935270041425401 1:26.01599 2:159.644 3:0.137508 4:103.8526 
0.5048330688581457 1:50.92603 2:255.777 3:-0.07748083 4:142.1872 
0.5016846828290712 1:26.60101 2:71.294 3:-0.1736853 4:92.16296 
0.5035911084110551 1:26.30698 2:204.143 3:0.299419 4:93.58572 
0.5038139469843322 1:35.13501 2:277.744 3:0.2099948 4:152.9458 
0.5047140372196626 1:38.584 2:236.343 3:-0.2600251 4:153.3962 
0.5037497438226576 1:60.09601 2:335.938 3:-0.1336221 4:155.0634 
0.5031727159584869 1:21.5507 2:78.6256 3:-0.3990502 4:167.7638 
0.5039758250313026 1:12.705 2:86.651 3:0.4088956 4:149.7981 
0.4671269276224013 1:28.70502 2:176.09 3:0.1961263 4:92.78645 
0.4863272617919456 1:28.392 2:120.951 3:-0.2355416 4:93.7203 
0.5018015075942835 1:49.211 2:216.048 3:-0.1821301 4:116.9485 
0.5046300050874506 1:32.28998 2:131.617 3:-0.1679482 4:169.4118 
0.5044850305514816 1:31.85297 2:124.654 3:0.07174124 4:95.35455 
0.5039660689438246 1:57.26602 2:210.766 3:0.1124809 4:122.038 
0.5048842056461872 1:65.13495 2:208.9979 3:0.2077876 4:142.819 
0.3312620888974785 1:21.19 2:92.241 3:0.3034168 4:133.5244 
0.4775244922723735 1:46.33405 2:196.958 3:0.1244687 4:127.4488 
0.5044250190072529 1:27.263 2:120.722 3:0.1657847 4:172.0568 
0.50482670063001 1:125.5466 2:29.0616 3:0.2243484 4:153.171 
0.3973077529722788 1:25.257 2:108.599 3:0.3396652 4:131.6512 
0.492025962662376 1:17.9192 2:99.38161 3:0.2455334 4:116.2151 
0.5019874696056188 1:56.22601 2:245.269 3:0.1549515 4:157.0217 
0.5047477560470568 1:73.06104 2:192.014 3:-0.1921568 4:147.219 
0.4879100593393427 1:28.70502 2:86.07501 3:-0.1855075 4:89.95743 
0.5045396624360921 1:40.0534 2:132.3574 3:-0.2482545 4:167.7418 
0.4376127691128702 1:33.73 2:147.798 3:-0.1569021 4:137.1087 
0.4644932948466238 1:25.27699 2:165.228 3:0.09363604 4:113.724 
0.4486205641617718 1:35.43698 2:168.356 3:0.09007657 4:96.24719 
0.5046376705056204 1:39.06401 2:177.51 3:-0.06602563 4:123.5431 
0.3613462249929605 1:26.8465 2:104.6587 3:-0.1765358 4:115.4708 
0.5017521811811357 1:47.67902 2:198.491 3:0.07150877 4:116.7398 
0.5044157858799103 1:28.91699 2:167.195 3:-0.1138857 4:104.3442 
0.5015154975336742 1:43.15399 2:179.338 3:-0.09775459 4:118.7283 
0.5046764739983027 1:83.42099 2:372.55 3:0.1248703 4:155.7501 
0.5048956501096851 1:113.1899 2:160.37 3:0.1281078 4:136.8945 
0.5048229357859955 1:32.57301 2:95.406 3:0.2498663 4:179.7995 
0.4552475741552039 1:35.88501 2:165.431 3:0.05049312 4:95.98901 
0.5042501118306181 1:105.2338 2:82.6118 3:0.1585001 4:159.0762 
0.5021407010381833 1:33.06897 2:154.993 3:0.3707728 4:157.2634 
0.4842407298517122 1:29.69904 2:166.063 3:0.1214053 4:128.8496 
0.5036822902508253 1:48.90298 2:186.641 3:-0.1890698 4:151.339 
0.3268776698090439 1:26.03481 2:61.6891 3:-0.1016982 4:128.3223 
0.4630431826133651 1:33.08701 2:148.132 3:0.114549 4:141.0913 
0.4934919450900174 1:28.19501 2:90.43896 3:-0.1733025 4:94.43168 
0.3513834457095971 1:21.8821 2:53.5227 3:-0.2914536 4:103.4653 
0.5046084612274989 1:42.23102 2:165.488 3:0.2584281 4:157.6315 
0.4896674583511004 1:22.8081 2:79.0705 3:-0.2024185 4:112.5759 
0.4935852372724526 1:24.5172 2:156.1913 3:0.1043165 4:114.471 
0.5002211948893542 1:18.3504 2:93.7039 3:-0.1788153 4:112.8753 
0.4019018839384069 1:21.60699 2:133.448 3:0.4334609 4:147.4113 
0.5048358066928975 1:41.14499 2:246.09 3:0.108379 4:177.1325 
0.5048286291892677 1:128.5 2:228.51 3:0.156676 4:132.368 
0.4988150092792897 1:33.92102 2:145.1801 3:0.1744546 4:127.2374 
0.5050712454924902 1:30.977 2:36.67 3:0.1026099 4:137.257 
0.4607023144599155 1:26.2354 2:133.7294 3:-0.1365345 4:121.7963 
0.5006026451222424 1:23.95599 2:151.776 3:0.09688094 4:111.7519 
0.5047041950569141 1:56.32007 2:133.6 3:-0.132485 4:138.6194 
0.501208066580655 1:22.9665 2:141.2075 3:0.2403387 4:123.4168 
0.3499146767250925 1:24.26202 2:191.932 3:-0.3467865 4:90.99565 
0.5048496604366639 1:38.881 2:63.093 3:-0.26326 4:95.75006 
0.2841493298520928 1:31.71802 2:272.956 3:-0.1715237 4:95.00847 
0.5048672878783259 1:74.86804 2:239.6531 3:0.1212019 4:109.8183 
0.5015524700564322 1:29.161 2:126.252 3:0.124772 4:120.2966 
0.4023424502512912 1:38.26199 2:89.54399 3:-0.1914249 4:141.1545 
0.3860558581070521 1:35.144 2:161.857 3:0.1218669 4:129.4621 
0.4981041209575255 1:26.7913 2:113.6098 3:0.1669349 4:135.1366 
0.5048695620273758 1:34.09201 2:289.385 3:0.2878993 4:139.7675 
0.5048525601536142 1:106.677 2:355.059 3:-0.1733736 4:176.4733 
0.479792070794543 1:0 2:113.642 3:0.4621102 4:161.7734 
0.504424132789815 1:35.97501 2:108.833 3:0.1310068 4:123.8975 
0.5046570267628575 1:71.9579 2:83.5419 3:0.3413537 4:141.1957 
0.5048962424674621 1:57.4885 2:51.5174 3:0.3611673 4:72.92012 
0.5045765769791024 1:26.23898 2:218.637 3:-0.1363263 4:105.6956 
0.5036995438209697 1:33.71701 2:149.918 3:-0.1336899 4:97.94736 
0.3542837092709398 1:20.4347 2:70.7009 3:-0.4256316 4:90.40513 
0.5048842980908462 1:33.32401 2:241.645 3:0.0656289 4:107.3545 
0.5047879032930523 1:89.12799 2:338.871 3:-0.1046411 4:160.7269 
0.4799468072293353 1:25.158 2:93.409 3:0.129262 4:109.3596 
0.5040301170364019 1:30.30399 2:198.275 3:0.0879287 4:107.3216 
0.5016462415707519 1:19.7221 2:60.6184 3:-0.2638192 4:122.9389 
1 1:24.789 2:60.4321 3:0.2262271 4:145.0877 
0.4349586475296922 1:18.0818 2:110.9383 3:0.2345862 4:105.5994 
0.09639973340498029 1:31.32901 2:127.765 3:-0.1451229 4:139.4379 
0.4077767770841049 1:39.66599 2:165.803 3:-0.08934522 4:107.8352 
0.5048954620318946 1:110.658 2:258.821 3:0.07922732 4:152.6519 
0.5044748441453392 1:33.77499 2:165.231 3:0.08849506 4:105.6599 
0.5048951646042055 1:30.285 2:270.284 3:0.1151698 4:175.6768 
0.5035239040257612 1:16.627 2:106.086 3:0.3863312 4:138.5754 
0.3306623284370683 1:70.633 2:352.721 3:-0.06448007 4:154.5773 
0.399540168100227 1:41.263 2:190.351 3:-0.2054574 4:106.547 
0.5048925049154452 1:101.12 2:198.5499 3:-0.1614172 4:153.7203 
0.5042419516378365 1:17.27901 2:85.216 3:0.434659 4:94.17899 
0.504895679135837 1:61.82001 2:231.735 3:0.1022366 4:132.3131 
0.5048950455649552 1:146.49 2:326.9501 3:0.130103 4:155.5029 
0.504784663795024 1:36.40698 2:194.724 3:-0.1927539 4:141.2287 
0.4594777287053802 1:29.186 2:91.62799 3:0.1094418 4:126.883 
0.4984204538096051 1:18.5493 2:115.3733 3:0.4014814 4:141.8357 
0.5043331012017488 1:51.04797 2:212.034 3:-0.1614234 4:149.2021 
0.4942591329257144 1:23.49001 2:131.078 3:0.2461371 4:140.8661 
0.5046536053001944 1:55.59497 2:244.493 3:0.1837283 4:111.9744 
0.3875092843055487 1:26.776 2:83.48401 3:0.09674032 4:127.8773 
0.4345083958519898 1:0 2:84.0782 3:-0.08685506 4:129.5802 
0.2531944338540475 1:26.734 2:84.198 3:-0.1890005 4:111.1888 
0.4169697943293343 1:22.3736 2:84.93851 3:-0.2170954 4:110.1369 
0.4182487678688505 1:20.106 2:116.708 3:0.2672608 4:131.4891 
0.4855053836678865 1:25.72399 2:127.55 3:0.451967 4:149.4246 
0.472203470470116 1:28.93301 2:149.453 3:0.1229576 4:110.2357 
0.3209373927791391 1:19.5431 2:78.5592 3:0.3707317 4:104.91 
0.4723821446499822 1:22.9436 2:107.7595 3:0.2683979 4:125.9712 
0.3443216733246006 1:28.30701 2:172.686 3:-0.2809196 4:139.0835 
0.5045831686641398 1:36.36798 2:154.61 3:0.1148489 4:95.25292 
0.3966185107880538 1:28.879 2:184.347 3:-0.3280158 4:90.61112 
0.5007156953055693 1:23.33501 2:76.84401 3:-0.2802735 4:90.02609 
0.5048782496861094 1:42.91602 2:341.609 3:-0.1430602 4:156.7306 
0.501668623072873 1:15.669 2:98.492 3:0.4123228 4:28.15289 
0.4332076370138175 1:29.00201 2:94.75397 3:0.1656048 4:122.0957 
0.3558903351511666 1:21.7708 2:59.8645 3:0.07182201 4:129.2644 
0.4159100445553204 1:37.254 2:118.847 3:0.145308 4:150.4573 
0.4903184029550566 1:22.1615 2:43.2918 3:0.3643137 4:122.2083 
0.5048915898870017 1:96.50403 2:326.1591 3:0.1455303 4:128.8029 
0.4842337623985947 1:22.89901 2:65.64001 3:-0.3391542 4:87.43328 
0.2968985167812976 1:23.6012 2:86.779 3:0.1631643 4:105.8851 
0.5048916511736931 1:110.8493 2:92.7343 3:0.1384411 4:129.8357 
0.504891504026618 1:128.033 2:438.173 3:-0.1680952 4:158.6999 
0.5048918969371825 1:85.35303 2:351.128 3:-0.130145 4:123.079 
0.4818987927788496 1:31.64799 2:182.328 3:0.06872844 4:113.518 
0.4770040643933539 1:27.6644 2:133.1509 3:0.1808475 4:173.5235 
0.4777824926840227 1:36.4598 2:86.62981 3:0.1441943 4:110.5544 
0.5048924257457096 1:57.76599 2:349.719 3:-0.1745149 4:130.4674 
0.5050362972215534 1:60.878 2:122.469 3:0.07906072 4:155.8846 
0.5045674109623519 1:31.1971 2:72.3011 3:-0.1521627 4:109.3431 
0.319089759994123 1:30.7791 2:97.78629 3:-0.1384717 4:122.6944 
0.5049005563306426 1:30.90201 2:302.673 3:0.2259173 4:147.3371 
0.503126462928754 1:24.981 2:148.083 3:-0.1530131 4:122.8263 
0.5030926650385523 1:28.5418 2:74.8788 3:0.1563727 4:149.518 
0.4899984524707705 1:64.62199 2:55.871 3:0.3269918 4:116.8057 
0.5048961722625043 1:104.3057 2:73.6497 3:0.4133481 4:166.9783 
0.3960907037223793 1:24.6969 2:90.6712 3:-0.281721 4:97.00252 
0.5048524392241833 1:34.5918 2:151.0658 3:-0.3912621 4:168.173 
0.4415359519964939 1:27.5134 2:47.7821 3:-0.1380502 4:117.0996 
0.5048969879086913 1:123.0534 2:62.8214 3:0.3555003 4:101.1774 
0.5048922643082794 1:112.867 2:398.4 3:0.1678232 4:131.9149 
0.5042286724965009 1:59.084 2:139.29 3:-0.1101858 4:151.2374 
0.5046583791710211 1:31.28601 2:226.447 3:0.1819135 4:137.5262 
0.362402337360575 1:20.0262 2:105.8781 3:0.2522962 4:153.4264 
0.5048949329469535 1:78.82007 2:150.3201 3:-0.1415614 4:147.7491 
0.5047227451392604 1:76.23999 2:192.0801 3:0.08598031 4:137.0098 
0.4962391195416849 1:23.34451 2:76.4985 3:-0.2329121 4:147.2218 
0.3854648868688089 1:19.3397 2:114.1269 3:0.2885472 4:74.91417 
0.5048915662792833 1:17.1385 2:129.3122 3:0.1731196 4:57.85763 
0.5045649095570677 1:87.43103 2:340.28 3:0.1704477 4:138.3145 
0.5036534424166487 1:29.98699 2:84.941 3:0.4338068 4:167.4946 
0.4195046107191596 1:31.4079 2:64.0616 3:-0.1103297 4:126.5013 
0.4970730668605516 1:30.13602 2:142.798 3:0.06736875 4:105.2781 
0.4922930194085431 1:24.6748 2:123.3929 3:0.1502321 4:122.4198 
0.5045896007236103 1:0 2:88.7937 3:-0.2755883 4:167.7665 
0.4342358005800286 1:36.142 2:135.467 3:-0.1139729 4:128.9567 
0.4482985208461434 1:19.108 2:131.455 3:0.2581392 4:122.5159 
0.5048913280588634 1:48.3166 2:104.0272 3:-0.1452188 4:146.3127 
0.4484381881536462 1:29.7621 2:76.6331 3:0.1756115 4:105.2534 
0.5048906281413875 1:18.81097 2:227.705 3:0.3773375 4:144.0879 
0.503728862908751 1:19 2:54.925 3:0.3597796 4:160.5594 
0.5048351604707438 1:42.13901 2:207.689 3:0.09088385 4:126.9929 
0.4178901088553764 1:21.936 2:153.652 3:0.1784756 4:145.67 
0.4614372234072946 1:78.08997 2:296.614 3:0.1882226 4:152.6546 
0.4698955341446776 1:32.8158 2:44.7278 3:-0.241382 4:124.2573 
0.5048324397072896 1:22.19098 2:155.93 3:-0.1734152 4:82.04715 
0.6415983358186254 1:16.5798 2:46.7507 3:0.4269851 4:108.412 
0.4992008346557367 1:37.09998 2:279.643 3:0.09918053 4:157.7221 
0.5048880126449973 1:62.76501 2:276.937 3:-0.1682809 4:152.1657 
0.4793881972448659 1:21.2808 2:136.7988 3:-0.141408 4:147.469 
0.2746553561957153 1:24.05 2:93.03619 3:-0.2544976 4:97.54086 
0.5039907254874665 1:55.44104 2:197.475 3:0.08791979 4:117.3028 
0.5048679484221998 1:16.57199 2:208.138 3:-0.1437021 4:156.9943 
0.487748926204428 1:17.0363 2:60.9623 3:0.2417745 4:87.29321 
0.5047068538557389 1:15.22 2:63.942 3:0.2685504 4:179.9258 
0.1828172593550295 1:25.4765 2:61.0658 3:-0.1855851 4:127.4791 
0.475573357151465 1:34.5129 2:83.97689 3:0.249991 4:109.7304 
0.5012576205639555 1:33.357 2:175.534 3:-0.1120618 4:125.7899 
0.5047900434512482 1:55.073 2:353.997 3:-0.07715862 4:163.0616 
0.5048285020468166 1:66.97998 2:97.47998 3:-0.1005166 4:141.0199 
0.5046901924505605 1:41.3592 2:63.985 3:0.2765349 4:159.697 
0.5045112470313771 1:27.2386 2:80.9539 3:-0.208886 4:157.1481 
0.3559430637512599 1:21.349 2:70.435 3:0.3248506 4:87.56512 
0.3507520168151907 1:22.558 2:192.458 3:-0.1193578 4:90.78691 
0.5034731846687713 1:45.867 2:352.688 3:-0.2686678 4:162.6633 
0.5048895225835348 1:46.20099 2:69.71999 3:-0.1804365 4:108.3076 
0.4359104758508233 1:22.2285 2:71.9649 3:0.2667688 4:92.69306 
0.3925676346305713 1:30.369 2:154.176 3:-0.07685474 4:113.7404 
0.8131835374197358 1:18.40611 2:71.43171 3:0.4601702 4:120.1154 
0.4963169514911206 1:34.117 2:86.774 3:0.1933711 4:135.4031 
0.5044919885244588 1:42.349 2:128.753 3:0.1590606 4:145.6617 
0.4993586535075559 1:35.298 2:187.857 3:-0.1393281 4:100.3259 
0.4873360751216448 1:29.93101 2:173.38 3:-0.1450792 4:150.6386 
0.5048930365454372 1:100.1905 2:52.3955 3:-0.1057222 4:130.5663 
0.4997634501798396 1:31.771 2:162.014 3:0.2716962 4:147.8618 
0.5047360462259409 1:59.57899 2:203.141 3:0.07259129 4:141.2726 
0.4999991158924451 1:22.34302 2:147.334 3:0.1695863 4:92.71778 
0.5045702192289523 1:51.97998 2:136.5 3:-0.1058339 4:136.3671 
0.5048920634938843 1:0 2:151.555 3:-0.100496 4:132.5026 
0.3826046896473522 1:40.995 2:181.999 3:-0.1040277 4:154.6239 
0.5034269313418323 1:31.632 2:191.702 3:0.1472815 4:142.5827 
0.4728431623774285 1:27.4298 2:155.7345 3:-0.052134 4:134.5928 
0.4378846299348887 1:81.41992 2:60.12 3:0.1548586 4:126.4326 
0.3608245885614517 1:33.36499 2:182.295 3:-0.1363853 4:98.23849 
0.5046801628144716 1:77.56702 2:325.814 3:0.1929151 4:154.4207 
0.4846515945469657 1:39.44696 2:165.199 3:-0.08702026 4:121.2964 
0.5048921028335469 1:93.50995 2:269.04 3:-0.1147453 4:119.4891 
0.5048360508490722 1:44.04202 2:253.626 3:-0.07099948 4:124.488 
0.5006155339271017 1:33.4008 2:101.7778 3:-0.1559558 4:115.7977 
0.5029696532368184 1:20.7571 2:84.0116 3:-0.1770714 4:157.3019 
0.3286444867308541 1:23.8247 2:91.56529 3:-0.135749 4:119.1431 
0.5044592246911271 1:17.6374 2:103.6401 3:-0.313038 4:100.032 
0.5047052262703269 1:0 2:117.785 3:0.3090457 4:102.938 
1 1:21.2914 2:39.9268 3:0.1462396 4:114.8666 
0.4349814503365307 1:27.7191 2:92.92811 3:-0.1707 4:129.594 
0.5048781203538587 1:26.51901 2:222.162 3:0.2788633 4:112.3836 
0.4340549534988233 1:25.3845 2:109.9575 3:-0.3087332 4:104.6354 
0.4978256059464798 1:26.4346 2:51.6626 3:-0.2112551 4:104.4733 
0.5700450604824687 1:20.035 2:54.01801 3:0.439217 4:92.46784 
0.4901226087854311 1:26.6357 2:84.1707 3:-0.2699125 4:135.5459 
0.4783350513561814 1:34.019 2:119.505 3:-0.1723701 4:153.8082 
0.2422941844994723 1:39.34399 2:155.325 3:0.322738 4:138.9682 
0.4050274215663462 1:28.95099 2:173.435 3:0.1811742 4:94.90685 
0.4798328032083596 1:26.339 2:103.302 3:-0.221273 4:89.38613 
0.5048983754766856 1:103.971 2:249.5801 3:-0.1569387 4:147.2657 
0.8772768908033191 1:19.3139 2:38.5414 3:0.2488351 4:74.09567 
0.5048985015831301 1:81.67303 2:349.909 3:0.156357 4:135.7656 
0.4895510065744531 1:26.2929 2:69.9843 3:-0.2271486 4:149.886 
0.3062692080403665 1:26.286 2:89.90301 3:0.1765443 4:103.4131 
0.4741842000695645 1:23.6461 2:64.4231 3:0.177008 4:128.8524 
0.3618918779346179 1:20.9143 2:88.8185 3:0.1422048 4:102.8556 
0.3953393302901737 1:36.17297 2:216.516 3:0.1244555 4:138.1772 
0.4486360935442516 1:23.1604 2:91.5765 3:-0.08238302 4:126.4079 
0.5044567800116037 1:49.5756 2:62.3974 3:0.07304793 4:124.5649 
0.4308916217158958 1:30.07697 2:184.132 3:0.2087337 4:93.33303 
0.4281750724394591 1:20.91301 2:114.213 3:0.2380774 4:133.9666 
0.46960939746835 1:26.85201 2:80.25101 3:-0.2320384 4:92.02563 
0.3883873102674668 1:26.2015 2:85.1022 3:-0.193112 4:125.3779 
0.326622345481178 1:27.496 2:254.115 3:0.2881014 4:145.7853 
0.5043515383223136 1:31.40099 2:156.106 3:-0.1860535 4:166.797 
0.3722681610594061 1:20.2011 2:105.848 3:-0.2235852 4:156.0275 
0.5047467508249962 1:38.37802 2:173.572 3:-0.1529388 4:98.05722 
0.5048995182733372 1:52.54004 2:397.888 3:0.2445089 4:179.9561 
0.4478486841464319 1:29.36099 2:119.626 3:0.3633613 4:155.0964 
0.5048980741641463 1:59.38 2:177.4701 3:-0.133559 4:141.2122 
0.1737022489893609 1:42.83398 2:191.608 3:0.1084531 4:130.6789 
0.4667542704326016 1:18.7207 2:58.183 3:-0.34389 4:168.8927 
0.4652599737788561 1:30.207 2:141.567 3:-0.1959744 4:154.8959 
0.4812909206080484 1:46.97998 2:181.2899 3:0.1895009 4:112.2106 
0.5035143146235379 1:25.2 2:147.637 3:0.2009349 4:115.3857 
0.4882002661806066 1:29.414 2:123.76 3:0.2304864 4:165.0501 
0.5048975318397659 1:132.868 2:501.298 3:-0.1381638 4:165.8439 
0.5047667642180991 1:62.42603 2:217.892 3:-0.1686798 4:147.9222 
0.4254516204043873 1:44.431 2:187.808 3:0.1876934 4:107.2172 
0.5046781141740346 1:40.96999 2:218.609 3:0.1276465 4:109.6095 
0.420419772976302 1:24.4496 2:112.0448 3:-0.3945677 4:169.5189 
0.5048974762671746 1:128.1899 2:213.76 3:0.1037673 4:145.4996 
0.2628920545712616 1:25.2038 2:70.6044 3:0.4339791 4:153.5418 
0.5037934200235147 1:28.48999 2:128.184 3:-0.1763714 4:162.5425 
0.504891212013439 1:111.587 2:288.303 3:-0.130616 4:164.8771 
0.504891714830904 1:0 2:125.367 3:0.3609356 4:156.4916 
0.5042655876223019 1:41.96201 2:181.276 3:-0.1438534 4:98.59281 
0.4673186732931748 1:33.53111 2:95.2851 3:-0.07733767 4:132.2307 
0.5040281292943559 1:66.774 2:166.65 3:-0.06437884 4:167.7281 
0.5041294814976944 1:28.98203 2:163.228 3:0.2048338 4:120.6345 
0.5048943324129276 1:0 2:91.8311 3:0.2275915 4:152.4349 
0.5041918194406281 1:27.66101 2:113.793 3:0.1068459 4:112.6885 
0.3084261868726764 1:23.8798 2:121.2746 3:0.2903935 4:155.7253 
0.4997005279262209 1:29.77 2:180.69 3:0.103748 4:121.9748 
0.50120323276943 1:45.15701 2:158.861 3:0.09840839 4:151.1192 
0.3596516124385243 1:21.6137 2:57.2939 3:0.1449523 4:118.1021 
0.4001680929645818 1:25.8227 2:65.9156 3:-0.3696284 4:117.0227 
0.9112632027243164 1:24.3655 2:45.9655 3:0.2567794 4:112.466 
0.5021945419586654 1:38.36902 2:259.637 3:0.2000854 4:137.9437 
0.5042492726520834 1:44.201 2:214.818 3:-0.1888028 4:171.5569 
0.5047776047857461 1:46.08499 2:321.849 3:-0.1762239 4:155.8709 
0.3993628347683312 1:22.349 2:170.707 3:0.227616 4:125.8009 
0.5048907189214381 1:105.306 2:351.917 3:-0.1368439 4:151.4433 
0.6028783521792203 1:16.925 2:73.5794 3:0.2334571 4:62.85374 
0.5048942086300731 1:122.856 2:207.746 3:-0.1722098 4:139.2236 
0.5048936016464058 1:33.31104 2:284.244 3:-0.1214465 4:93.13527 
0.5048923705745008 1:180.809 2:67.384 3:-0.2521439 4:63.20806 
0.5003286885976971 1:17.8583 2:82.03901 3:0.5372357 4:151.9377 
0.4781420242554103 1:25.10699 2:173.141 3:0.2033954 4:117.594 
0.5048942901732763 1:138.888 2:185.681 3:-0.1628783 4:131.8737 
0.4520530291903725 1:25.707 2:68.537 3:-0.1846485 4:141.7533 
0.5048911386427123 1:156 2:281.8201 3:-0.1758876 4:151.3967 
0.4127894016766391 1:34.30301 2:206.783 3:-0.1034661 4:134.9252 
0.3957408791471698 1:34.32605 2:171.247 3:0.07500613 4:118.6047 
0.334997130538059 1:22.60699 2:117.62 3:0.2094875 4:122.9361 
0.459838935695429 1:25.369 2:142.166 3:0.11085 4:110.8071 
0.5048929077011225 1:49.146 2:251.549 3:0.07581629 4:118.6706 
0.5020682583769647 1:46.70801 2:191.365 3:-0.1451879 4:135.2575 
0.5048907474290785 1:49.8774 2:67.3114 3:-0.2578213 4:167.0222 
0.5048377277505725 1:71.73199 2:346.349 3:0.1577482 4:161.0181 
0.4281137644671521 1:76.89197 2:296.744 3:0.11198 4:163.3939 
0.445099200070539 1:23.8097 2:91.16711 3:0.1514069 4:141.1078 
0.4977423060158073 1:37.61899 2:132.101 3:0.2176478 4:136.1089 
0.5043213861077154 1:45.092 2:117.084 3:0.09934831 4:146.5296 
0.50489055501864 1:109.99 2:190.29 3:-0.1693273 4:138.1112 
0.5048908375586509 1:38.28198 2:242.887 3:-0.1208774 4:97.63699 
0.4999559450691022 1:30.7987 2:165.7957 3:-0.1035064 4:149.5949 
0.5048934441581951 1:106.29 2:167.17 3:-0.134641 4:145.0135 
0.5048971322880996 1:52.30695 2:293.0349 3:0.1338096 4:113.051 
0.3947946982247939 1:23.7308 2:53.6121 3:0.305395 4:94.75029 
0.4667134664537956 1:19.9739 2:57.0782 3:-0.4755996 4:171.5816 
0.5046697332212279 1:27.76599 2:152.465 3:0.2293671 4:129.127 
0.3108867158358061 1:29.9562 2:64.4042 3:0.2543044 4:124.2051 
0.504897325451239 1:74.909 2:208.183 3:0.2205167 4:143.6786 
0.4238659547779555 1:24.91002 2:131.839 3:-0.2385785 4:87.65301 
0.6397074055867128 1:19.4246 2:35.9836 3:0.3697 4:157.4008 
0.5048914522460055 1:106.74 2:398.08 3:-0.138049 4:156.9558 
0.488404678441217 1:29.821 2:123.15 3:0.1844757 4:123.6283 
0.5048914588732885 1:97.68903 2:360.95 3:0.1555575 4:132.8789 
0.5048938244367862 1:17.112 2:109.585 3:0.2716893 4:54.95171 
0.5043638430520713 1:26.11902 2:197.747 3:0.09089488 4:99.59808 
0.5005005093046597 1:32.4713 2:131.9413 3:0.2582636 4:176.1904 
0.4571950848516833 1:22.33301 2:221.761 3:0.1637021 4:82.83543 
0.5046240065054162 1:36.72705 2:71.56702 3:-0.09036168 4:114.2074 
0.5047855112884581 1:53.828 2:81.07201 3:0.1654494 4:161.9849 
1 1:21.3402 2:37.4932 3:-0.1022603 4:116.932 
0.4950532253810801 1:16.29401 2:177.313 3:0.3983032 4:143.7693 
0.3203244787866654 1:21.6376 2:69.6488 3:-0.3836176 4:105.745 
0.3913199593782333 1:0 2:100.8187 3:0.2214582 4:86.0737 
0.4446409620384231 1:18.1492 2:68.18719 3:0.1955655 4:82.78325 
0.4340320391435306 1:27.6956 2:174.1608 3:-0.2265463 4:97.09865 
0.3603312810301253 1:30.553 2:95.008 3:0.1190908 4:140.8991 
0.5047885135498267 1:52.54599 2:246.736 3:-0.1311882 4:165.3111 
0.5048578213156703 1:99.508 2:338.628 3:-0.1604604 4:174.1003 
0.4913150886159787 1:18.7806 2:100.6169 3:0.4026374 4:112.5072 
0.438548769233238 1:27.41899 2:133.275 3:-0.3025037 4:124.8148 
0.4719683322065094 1:43.577 2:128.614 3:0.1329586 4:124.2023 
0.4963071592243112 1:30.6249 2:59.755 3:-0.1880309 4:114.8363 
0.5024417950003592 1:43.60199 2:180.443 3:0.1695853 4:158.3978 
0.5048909558197888 1:42.515 2:159.519 3:-0.2106954 4:171.0707 
0.4498724565027438 1:23.6516 2:53.1584 3:-0.1550621 4:122.7164 
0.5048993369527952 1:42.83899 2:276.185 3:-0.1199504 4:101.4301 
0.5048913158386021 1:16.62399 2:113.21 3:0.344045 4:41.42733 
0.4097340453142551 1:23.9673 2:90.63139 3:-0.1420023 4:150.2925 
0.5037030902781724 1:21.85901 2:172.168 3:0.05433154 4:99.69421 
0.4778937531774758 1:33.95999 2:88.384 3:0.1460668 4:103.5532 
0.5048906039627247 1:70.37 2:290.05 3:0.1256244 4:149.2158 
0.5048843057786351 1:28.914 2:270.675 3:0.2183382 4:164.2701 
0.3096807779574996 1:23.4067 2:65.02029 3:0.2249957 4:117.1984 
0.2643033312245908 1:26.965 2:102.892 3:0.1272692 4:116.119 
0.5044242509576558 1:52.04999 2:201.312 3:0.2950279 4:163.0478 
0.4194953809456855 1:23.2174 2:84.5849 3:-0.1373456 4:144.1016 
0.5048979672464697 1:101.461 2:294.658 3:0.252975 4:140.921 
0.4793630309512027 1:26.306 2:172.93 3:0.09262487 4:111.7903 
0.4240647453442128 1:25.3226 2:75.67661 3:-0.16334 4:113.8201 
0.5039560110767324 1:40.61801 2:94.908 3:-0.1255538 4:148.9329 
0.5044985568395932 1:16.35004 2:179.963 3:0.1255392 4:123.6283 
0.388771306223027 1:26.33002 2:232.039 3:0.1241583 4:142.7036 
0.5048974711032943 1:63.40204 2:276.716 3:0.09033124 4:133.8457 
0.5041720531002667 1:59.42139 2:146.9474 3:0.1144856 4:141.6873 
0.5041623050243927 1:121.61 2:204.5499 3:-0.1518872 4:148.0842 
0.3251140463844875 1:19.45401 2:94.00101 3:0.1392679 4:154.7228 
0.4062178099987561 1:24.50702 2:115.348 3:0.3596335 4:144.6922 
0.5046787243947379 1:18.41299 2:178.501 3:0.2565252 4:97.83749 
0.5048980469764681 1:145.332 2:414.1619 3:0.1562697 4:155.8956 
0.6877168375675111 1:17.2788 2:57.273 3:0.4406188 4:84.5658 
0.5048943747369968 1:99.70996 2:233.0701 3:0.1522059 4:146.5901 
0.3279994158003868 1:34.888 2:125.068 3:0.1888176 4:138.4436 
0.5048732973778551 1:34.37097 2:194.474 3:-0.04834981 4:99.66949 
0.5048865054908716 1:45.52795 2:95.409 3:-0.2846162 4:134.7027 
0.5027159534098771 1:48.25601 2:189.859 3:-0.09197696 4:122.3923 
0.4854557559047655 1:38.20299 2:223.28 3:0.2073703 4:167.1952 
0.5048901573145884 1:20.72 2:204.158 3:0.1574541 4:107.1513 
0.5041840381673799 1:72.64102 2:268.716 3:0.1599026 4:157.4365 
0.3894571684208115 1:57.35399 2:177.414 3:-0.06453731 4:149.2103 
0.4172734971902555 1:32.63898 2:117.452 3:-0.1854753 4:137.7844 
0.2353481590997942 1:27.33501 2:174.465 3:-0.1306215 4:121.9336 
0.4896113847652812 1:35.04102 2:155.54 3:-0.1683567 4:143.0332 
0.5046544668217368 1:23.63701 2:193.925 3:0.4400012 4:160.455 
0.5047106678157686 1:34.30499 2:221.358 3:-0.06882647 4:113.4301 
0.4347473754375101 1:21.6736 2:71.4453 3:-0.1473746 4:114.7924 
0.5048848860316383 1:65.384 2:317.548 3:0.09021332 4:136.8808 
0.5048968144085735 1:57.34998 2:227.84 3:-0.1038831 4:126.8638 
0.504896292508563 1:117.51 2:382.6801 3:0.1497757 4:141.2287 
0.5048824522422728 1:92.34399 2:320.221 3:0.2152784 4:146.4939 
0.5047239376609384 1:86.55698 2:365.215 3:0.07905033 4:160.3973 
0.5046269752269118 1:22.909 2:135.967 3:0.185846 4:137.0895 
0.4924154415961439 1:30.95401 2:163.073 3:-0.0435415 4:126.3584 
0.5042543032902288 1:105.65 2:311.76 3:-0.1343166 4:171.4003 
0.3876929722215058 1:20.6352 2:86.74421 3:0.326806 4:105.4566 
0.3814406312927318 1:28.46201 2:155.245 3:0.1664385 4:114.0261 
0.2951604375884779 1:25.3628 2:59.2445 3:0.1154464 4:132.4807 
0.5047213546293176 1:99.68994 2:303.4301 3:0.07385967 4:140.3799 
0.4996380603900744 1:22.278 2:64.11002 3:0.4106616 4:170.884 
0.5048945114983812 1:204.3501 2:423.3201 3:-0.1630056 4:179.9615 
0.5047382978738389 1:90.97009 2:314.5 3:-0.1578017 4:158.0627 
0.4890011325708041 1:27.74399 2:84.095 3:0.2395941 4:118.8437 
0.4200830945252804 1:22.677 2:114.946 3:0.2158772 4:142.8382 
0.5047247011601175 1:26.7601 2:96.3434 3:-0.2759216 4:175.5312 
0.325080561078871 1:21.53989 2:46.5042 3:0.1363833 4:124.0018 
0.1044320476545323 1:21.9613 2:63.0069 3:-0.1649412 4:114.4134 
0.4171358640001448 1:16.01401 2:94.53 3:0.3071912 4:154.4756 
0.4630542328734223 1:23.2464 2:134.4314 3:-0.08532247 4:116.0037 
0.5045925940813858 1:37.828 2:108.095 3:0.166249 4:118.6267 
0.3444544079964993 1:23.42701 2:91.40501 3:0.150436 4:101.6663 
0.4279792146614363 1:20.4614 2:77.34241 3:-0.1471688 4:126.9764 
0.4443427815127403 1:20.267 2:86.72998 3:0.2266158 4:153.5253 
0.4994409370038464 1:18.2753 2:65.34991 3:-0.2628928 4:170.3786 
0.4715635025766278 1:20.0985 2:74.5526 3:0.2525166 4:92.47059 
0.3647175687006371 1:26.97089 2:144.9599 3:0.1343399 4:96.76357 
0.4541802582041293 1:39.05399 2:189.864 3:0.06257281 4:117.0227 
0.4685361167902388 1:24.8216 2:84.3707 3:0.1568939 4:131.5441 
0.3772198132445284 1:28.5961 2:78.5621 3:0.1292594 4:131.9258 
0.330430027332779 1:28.825 2:80.82901 3:0.213882 4:134.3044 
0.504668840537569 1:41.909 2:285.001 3:0.2563677 4:118.2147 
0.5047172501980463 1:90.50397 2:376.77 3:-0.1291064 4:170.2577 
0.5016261300700092 1:27.758 2:159.013 3:-0.2220539 4:154.6981 
0.5048894591041636 1:14.55901 2:138.262 3:-0.2038154 4:141.1792 
0.5048904826995886 1:92.32904 2:303.8541 3:-0.1095011 4:130.8162 
0.4293008871875447 1:31.24199 2:141.67 3:0.09420856 4:115.5972 
0.5048842288992758 1:139.054 2:86.91401 3:0.4843248 4:179.9506 
0.387859066689656 1:31.2078 2:85.6038 3:-0.2628489 4:147.7766 
0.5047200463786812 1:29.65799 2:191.974 3:0.1853757 4:93.52804 
0.4477652684409572 1:25.2252 2:124.2602 3:0.1844605 4:139.8389 
0.4292116402632655 1:19.9448 2:96.4167 3:0.1241254 4:124.672 
0.4816724371805909 1:34.20299 2:183.981 3:-0.08729346 4:115.2209 
0.5042069437131917 1:202.91 2:297.71 3:-0.1873455 4:168.3433 
0.2485715326429472 1:20.3305 2:78.6095 3:-0.2407315 4:102.7924 
0.4429998121242067 1:20.823 2:64.8034 3:-0.3230112 4:118.1927 
0.5046753664434683 1:43.43399 2:169.542 3:0.1652693 4:102.5507 
0.5026212025111202 1:33.70799 2:159.288 3:-0.171305 4:125.084 
0.3523930538523523 1:32.68591 2:129.4456 3:0.2171189 4:140.1712 
0.5046852841138412 1:28.504 2:191.921 3:-0.1425023 4:131.6841 
0.4319394835088494 1:26.01701 2:92.31499 3:-0.1051555 4:115.8746 
0.5017215320730822 1:29.287 2:113.786 3:0.3535003 4:151.6164 
0.5048794769032791 1:204.61 2:464.47 3:-0.1722179 4:178.4399 
0.3878835198814328 1:31.211 2:126.767 3:0.07721712 4:139.4214 
0.4088824923352858 1:93.26605 2:373.811 3:0.137298 4:145.6974 
0.5046580332204582 1:0 2:104.605 3:-0.1261951 4:114.3722 
0.5048651640477897 1:114.3151 2:96.2331 3:0.1227686 4:115.4379 
0.4440943187300626 1:31.68701 2:135.619 3:0.2125349 4:138.9682 
0.2860742284528143 1:26.27499 2:88.561 3:-0.1649176 4:103.1769 
0.461846864726127 1:20.7345 2:184.9743 3:0.2061463 4:155.5853 
0.3430052600446031 1:44.29698 2:133.897 3:-0.1932742 4:163.1357 
0.4991644663811549 1:23.849 2:126.3329 3:-0.1975251 4:90.86656 
0.2188200736259453 1:21.89491 2:59.5499 3:0.1370067 4:116.6656 
0.5515014880181326 1:22.4847 2:53.4739 3:0.2387993 4:145.6782 
0.5048350138450748 1:43.0256 2:137.8676 3:-0.1005575 4:167.6814 
0.4948684673197609 1:18.28899 2:78.745 3:-0.1762584 4:136.3479 
0.5041868113974307 1:57.4365 2:91.86851 3:-0.4489767 4:158.3429 
0.5048592450924496 1:53.87 2:262.302 3:0.2528285 4:172.4852 
0.5045340308742172 1:34.43001 2:108.817 3:-0.2289664 4:95.01671 
0.5047879499963789 1:19.1216 2:96.7625 3:0.1354859 4:74.47471 
0.5042300398824464 1:19.3147 2:102.8737 3:0.1255683 4:144.1648 
0.5046087883640001 1:32.81499 2:174.783 3:0.12879 4:145.7578 
0.4436530951714085 1:23.489 2:111.592 3:-0.1956666 4:103.2181 
0.504692162718693 1:0 2:110.998 3:-0.2816702 4:121.453 
0.4291360684877776 1:22.507 2:91.89101 3:-0.1593993 4:116.2289 
0.5048878595664595 1:37.40399 2:269.456 3:-0.1693967 4:95.88739 
0.4085697211052468 1:27.9174 2:97.3164 3:-0.1757729 4:136.9165 
0.5048386246405644 1:17.5469 2:148.4407 3:0.2382336 4:104.2756 
0.2721458864530242 1:25.16401 2:119.79 3:-0.1816894 4:100.8396 
0.4822508184088298 1:19.45201 2:67.29399 3:0.1637499 4:107.6567 
0.504942707264366 1:19.674 2:128.572 3:0.2492047 4:97.86771 
0.5046787520129581 1:25.65991 2:172.72 3:-0.1372497 4:87.03227 
0.4559497237481909 1:28.8472 2:98.3462 3:-0.228439 4:143.2694 
0.5046077045554642 1:71.64999 2:296.258 3:-0.1669045 4:157.247 
0.5048496548641446 1:165.14 2:216.39 3:-0.159619 4:155.0277 
0.0845565717615635 1:21.7664 2:60.8876 3:0.1053005 4:154.4948 
0.5046497555630359 1:26.332 2:296.139 3:0.2284246 4:92.62989 
0.4688388435026585 1:32.79399 2:77.396 3:-0.2555285 4:105.6022 
0.4658822367853212 1:37.82901 2:155.389 3:0.1988939 4:129.7121 
0.5048339536327562 1:35.405 2:221.702 3:-0.169982 4:141.7368 
0.2761729763512927 1:27.35199 2:253.116 3:0.2154405 4:144.9091 
0.5046513453075797 1:52.565 2:160.223 3:-0.1567147 4:134.9664 
0.5048890453512122 1:90.30701 2:291.918 3:0.2008873 4:152.5228 
0.5048493554228153 1:59.63 2:96.01001 3:-0.1520712 4:111.8947 
0.5045309853640338 1:68.78101 2:269.5731 3:0.111115 4:148.7956 
0.4097968987451793 1:25.22 2:79.384 3:-0.1563243 4:104.6381 
0.4899720122503709 1:67.26151 2:58.4721 3:-0.1671654 4:116.8139 
0.5010780719341519 1:22.58997 2:63.22998 3:0.2507879 4:158.3621 
0.504889565887008 1:30.487 2:211.752 3:-0.1545974 4:118.4207 
0.5024595269899066 1:30.024 2:159.836 3:-0.1592907 4:116.4788 
0.5048316230852663 1:98.27502 2:309.268 3:-0.176025 4:170.5077 
0.5025216256416468 1:50.29199 2:188.393 3:0.1484948 4:134.7137 
0.3977990518742428 1:22.08099 2:168.4643 3:0.09296308 4:126.2678 
0.5047730799488532 1:25.035 2:66.53 3:0.2736613 4:176.1987 
0.5046654456426787 1:42.69 2:192.017 3:0.2390815 4:139.7372 
0.5041902613321291 1:292.3199 2:314.22 3:-0.274258 4:178.7695 
0.488009570081032 1:23.974 2:68.142 3:0.2052769 4:123.2493 
0.5019485848673754 1:30.52899 2:119.018 3:0.2277142 4:116.2344 
0.5048301148239535 1:113.366 2:329.421 3:0.1225213 4:174.8995 
0.5046027844574468 1:61.142 2:283.886 3:-0.08306621 4:128.2124 
0.446507370706829 1:33.86301 2:158.829 3:-0.0972748 4:162.1881 
0.5047066499006028 1:21.7073 2:107.084 3:0.1985082 4:113.4768 
0.4326270228834579 1:27.0972 2:96.9642 3:-0.2868049 4:162.6606 
0.3048058923824628 1:25.42299 2:70.873 3:0.4094712 4:154.547 
0.4586412599939585 1:17.37901 2:57.848 3:0.3295765 4:129.6791 
0.4908626935224033 1:22.0281 2:62.0861 3:-0.1826665 4:97.90616 
0.5043688615455517 1:60.09599 2:160.85 3:0.07052702 4:130.797 
0.5048394707219754 1:96.63989 2:209.5399 3:-0.1748647 4:160.4385 
0.5047136055573259 1:42.3999 2:81.19995 3:-0.1098231 4:139.0863 
0.4798838001693673 1:25.66 2:47.446 3:0.3460585 4:97.18379 
0.5037132115912195 1:24.9772 2:38.7218 3:-0.3870817 4:138.5974 
0.4978518311502652 1:33.12897 2:220.978 3:-0.2068371 4:154.5113 
0.5046589102873792 1:27.927 2:184.049 3:0.05466191 4:102.7814 
0.4977824287041797 1:29.6255 2:138.2565 3:0.1936998 4:157.7908 
0.480538180929474 1:27.823 2:179.708 3:-0.2268872 4:92.93752 
0.5048300183954251 1:44.25806 2:61.82806 3:0.1711778 4:132.8377 
0.4919693864602057 1:21.85199 2:143.036 3:0.190562 4:95.13756 
0.5048351305652259 1:140.59 2:280.63 3:-0.1432023 4:153.7121 
0.5008029245985696 1:28.78705 2:198.368 3:0.1865477 4:94.61845 
0.5048328773909661 1:183.893 2:79.036 3:0.3173461 4:160.466 
0.5047635280439808 1:55.72003 2:296.83 3:0.1608764 4:135.0433 
0.4426093173138613 1:26.6758 2:59.8158 3:0.1820751 4:114.4573 
0.5033609591167278 1:46.673 2:141.854 3:-0.1496709 4:120.5493 
0.5048830551612385 1:49.92 2:167.798 3:0.1291856 4:169.225 
0.4370911289935735 1:37.93501 2:216.45 3:0.06702367 4:140.1904 
0.4609643828063987 1:28.90503 2:213.381 3:0.2904218 4:158.3511 
0.504922645476765 1:61.28003 2:291.61 3:-0.1474847 4:166.7778 
0.5048194641296728 1:156.504 2:433.864 3:-0.1574729 4:157.2717 
0.4496452299439448 1:19.66219 2:54.5321 3:0.3618242 4:118.6239 
0.4338609118015572 1:23.86298 2:147.998 3:0.1300277 4:127.5312 
0.5048218981787216 1:147.3101 2:153.88 3:-0.1464991 4:153.5692 
0.3477008687081253 1:27.6377 2:79.6817 3:-0.1101904 4:135.1751 
0.5039504593710978 1:18.119 2:119.26 3:0.109356 4:145.0657 
0.3954777050826693 1:23.1935 2:104.5207 3:-0.2203965 4:84.85695 
0.432194000835685 1:31.53099 2:136.774 3:0.1819011 4:132.2692 
0.5046708693809824 1:73.883 2:330.851 3:0.1769896 4:157.0217 
0.5047186203259747 1:30.9646 2:54.5215 3:-0.1349569 4:152.2728 
0.5084483359695955 1:21.2519 2:52.4504 3:0.1424833 4:105.9071 
0.5048237431881205 1:36.23602 2:237.856 3:0.2879654 4:177.4044 
0.5022079547268433 1:31.46002 2:203.518 3:0.1038972 4:101.7404 
0.3567001295214848 1:21.4825 2:92.3335 3:0.4138048 4:121.1591 
0.5020312613589673 1:39.89499 2:261.168 3:0.1531955 4:133.8952 
0.4490733303902208 1:24.839 2:123.19 3:0.3098395 4:142.4921 
0.5046801843005617 1:16.7085 2:81.7726 3:0.2366332 4:46.80522 
0.4879718977843674 1:28.6633 2:72.8815 3:-0.2797121 4:164.5969 
0.4803553533335364 1:39.85999 2:213.979 3:0.1426297 4:143.9808 
0.4114522858646535 1:30.07101 2:125.495 3:0.2747368 4:130.3026 
0.4835525894889156 1:54.54301 2:123.456 3:-0.1190399 4:114.9627 
0.5040776028143328 1:43.82898 2:252.926 3:-0.1284927 4:153.6544 
0.5048666550460799 1:28.64101 2:241.661 3:0.2929919 4:142.5827 
0.3709000994357691 1:23.13499 2:166.438 3:0.2010892 4:108.8762 
0.5047524439940764 1:119.593 2:391.181 3:-0.09720333 4:147.1202 
0.5046973029459552 1:91.12599 2:129.824 3:0.2146785 4:161.1582 
0.4791859202197863 1:39.15002 2:125.248 3:-0.103489 4:111.9304 
0.5048176444700407 1:138.049 2:268.369 3:0.1520632 4:130.0883 
0.477974569773733 1:34.85095 2:171.757 3:-0.1391672 4:93.87686 
0.5025012984880881 1:25.6265 2:42.6395 3:0.2753488 4:158.6972 
0.5048136017078744 1:51.5196 2:71.6316 3:0.2066635 4:119.7968 
0.5028421612608719 1:26.218 2:117.793 3:0.1349615 4:117.6297 
0.504788666635222 1:102.03 2:240.7301 3:-0.1826909 4:166.948 
0.3778326089964659 1:25.5565 2:81.7315 3:-0.1692282 4:125.0373 
0.5047999495183181 1:72.66998 2:180.559 3:-0.2030809 4:156.2417 
0.2883732144418856 1:24.2211 2:71.9763 3:-0.2000659 4:120.7663 
0.5042187505957556 1:26.80499 2:298.77 3:-0.1758182 4:152.314 
0.290813016010014 1:24.5517 2:60.4127 3:0.1548768 4:122.461 
0.5033375474237837 1:42.61499 2:356.029 3:0.1372019 4:161.3367 
0.5047996616059316 1:240.42 2:282.5601 3:-0.1667603 4:172.7709 
0.5045117327136214 1:21.52002 2:181.29 3:0.229233 4:124.249 
0.4819090979000066 1:26.8008 2:84.7404 3:0.1863746 4:94.85466 
0.5036701075319489 1:24.82001 2:207.836 3:0.1831251 4:141.8631 
0.5047999794061482 1:38.729 2:317.276 3:0.1293597 4:138.8528 
0.4667293629587383 1:32.57079 2:86.7528 3:0.2242103 4:150.526 
0.5042275015271418 1:75.51105 2:241.442 3:-0.1912301 4:142.8492 
0.5048485341292155 1:21.42798 2:84.01898 3:-0.06266184 4:81.83017 
0.3718418499483106 1:24.7968 2:73.8892 3:0.2249815 4:165.7945 
0.3727194900007058 1:17.9255 2:95.8872 3:0.5603259 4:153.4676 
0.5048010735413127 1:122.59 2:263.98 3:-0.1681475 4:168.8267 
0.5047968436488914 1:99.353 2:176.428 3:0.1150006 4:134.3429 
0.5048963243125509 1:39.02197 2:144.097 3:-0.184705 4:94.71458 
0.5047863778385178 1:80.05994 2:132.65 3:-0.1434963 4:134.8592 
0.347399100606511 1:20.9227 2:69.3467 3:-0.1873425 4:140.5393 
0.4867320496221554 1:24.25101 2:182.054 3:-0.2999628 4:87.4992 
0.4790148043982067 1:32.095 2:101.333 3:0.2599756 4:148.7187 
0.5047855155524508 1:59.60205 2:285.4681 3:0.1358177 4:108.607 
0.199387449981315 1:38.539 2:155.605 3:0.2456374 4:139.3664 
0.4255573106312655 1:29.118 2:115.796 3:0.2048237 4:130.9316 
0.3989390832165995 1:29.1398 2:86.95151 3:0.0911006 4:149.0126 
0.4377654680517821 1:20.487 2:78.30899 3:0.2306612 4:132.8267 
0.5047864344303479 1:89.99103 2:183.0131 3:-0.2380415 4:154.5251 
0.4974060660045575 1:23.8629 2:48.4837 3:-0.337547 4:162.2596 
0.3367123512997559 1:21.9237 2:107.2204 3:-0.177156 4:121.7771 
0.3872295028081836 1:24.1073 2:74.8956 3:0.3037497 4:100.7352 
0.388320159204292 1:26.94501 2:229.939 3:0.3270404 4:142.7695 
0.4759484966511875 1:22.4353 2:132.8433 3:-0.1558756 4:107.827 
0.6231329680080526 1:17.2281 2:52.0249 3:0.2610148 4:53.96567 
0.4940823136568921 1:109.531 2:361.185 3:-0.1131063 4:161.5619 
0.5047861394462629 1:85.68103 2:243.429 3:-0.1421576 4:123.0103 
0.2962770092800807 1:21.5279 2:106.4265 3:0.1014843 4:123.3838 
0.4005652380597763 1:56.09406 2:245.35 3:0.266767 4:132.8844 
0.4456338154355741 1:23.14801 2:164.425 3:0.04970033 4:103.946 
0.5047787056367745 1:38.86301 2:323.901 3:0.1086515 4:124.5841 
0.4414836695331374 1:28.52502 2:83.34601 3:0.2784006 4:115.2209 
0.449972888392842 1:24.2878 2:101.1922 3:0.2672695 4:93.34402 
0.4999231545506628 1:32.354 2:76.737 3:-0.1740538 4:126.9929 
0.4704790819913095 1:28.136 2:69.621 3:0.1198415 4:123.7849 
0.5047801515792836 1:54.957 2:322.861 3:0.1735244 4:154.5251 
0.5047464083429016 1:73.16992 2:225.73 3:-0.1707696 4:157.4585 
0.5047865639770568 1:78.83502 2:306.773 3:0.2629607 4:167.1211 
0.4386699437622907 1:30.59009 2:73.65002 3:0.1899634 4:120.7855 
0.445751510297605 1:18.5884 2:93.1144 3:-0.1896991 4:139.7922 
0.3907518104035673 1:0 2:102.355 3:-0.3835128 4:84.58503 
0.5046870628416916 1:41.12 2:167.855 3:-0.2111176 4:149.4877 
0.4371412204133537 1:32.46899 2:132.801 3:-0.138816 4:138.2101 
0.5047806312257165 1:118.061 2:155.772 3:-0.1332774 4:158.4143 
0.4619826653158685 1:29.17499 2:81.00201 3:-0.1729877 4:128.726 
0.5046039846566576 1:16.19 2:235.407 3:0.3163855 4:134.0957 
0.5047796561043838 1:71.966 2:88.133 3:0.3281029 4:118.7915 
0.5048809527036351 1:20.30902 2:168.362 3:0.279413 4:118.2477 
0.5046048963927554 1:34.2591 2:115.7921 3:-0.2322596 4:162.2843 
0.4169804844302254 1:25.7407 2:105.8587 3:0.2773348 4:138.7677 
0.5037080031248383 1:30.9777 2:43.50529 3:-0.267287 4:135.1147 
0.5047837605491743 1:63.50598 2:354.0569 3:-0.1710474 4:162.2898 
0.4767391873515909 1:31.0247 2:85.7067 3:-0.1060217 4:114.07 
0.485193497322805 1:26.45721 2:128.4074 3:0.1294854 4:116.1273 
0.4997322158017248 1:30.13701 2:52.85701 3:-0.1620232 4:119.3243 
0.4949492725500221 1:18.26001 2:157.085 3:0.1545344 4:68.82765 
0.5046641217702715 1:25.26495 2:253.267 3:0.1069324 4:156.9393 
0.4987665538279492 1:37.964 2:114.749 3:0.1767645 4:129.55 
0.5017975916410116 1:30.371 2:159.875 3:0.1697675 4:129.8933 
0.5020216804098234 1:21.0001 2:100.9523 3:-0.2958312 4:132.0055 
0.5048660560609792 1:74.95499 2:313.334 3:-0.1249237 4:158.3291 
0.6516089965416076 1:21.1013 2:34.7748 3:0.2233496 4:64.44129 
0.4554706879876343 1:26.5196 2:89.48389 3:-0.2641241 4:169.1261 
0.3612403197668866 1:25.6977 2:79.3167 3:-0.2001011 4:116.8441 
0.4501701222164635 1:30.53699 2:133.14 3:0.2240771 4:141.3275 
0.5020450303695554 1:25.048 2:47.854 3:0.3641378 4:151.7125 
0.504729211844208 1:21.65802 2:207.021 3:0.1397804 4:89.69375 
0.5047203661350906 1:95.64001 2:126.89 3:-0.1282135 4:151.762 
0.5048920617820531 1:25.13101 2:147.124 3:-0.158016 4:179.4919 
0.491040951159471 1:44.49097 2:164.437 3:0.09432443 4:110.0462 
0.4676107233923177 1:26.8104 2:52.35841 3:0.1569905 4:122.3017 
0.4952008536831067 1:27.575 2:105.577 3:0.1716129 4:134.9773 
0.5047860340332831 1:35.72601 2:192.622 3:0.06947663 4:156.4971 
0.4354210748762891 1:17.3071 2:56.2204 3:0.2152567 4:81.78073 
0.5035695766004364 1:19.50699 2:100.569 3:0.2037566 4:138.2293 
0.504772781545115 1:117.065 2:418.368 3:-0.1101961 4:154.5031 
0.5218265686068968 1:21.4455 2:54.6805 3:0.3003733 4:151.968 
0.502406294015402 1:42.85098 2:154.484 3:-0.1772452 4:151.6741 
0.4951210439289125 1:49.90201 2:211.896 3:-0.1040598 4:112.26 
0.5047676924279116 1:96.19669 2:34.1658 3:-0.211128 4:150.9627 
0.4987021548985353 1:24.8856 2:89.9644 3:0.2335901 4:158.016 
0.3094996473617252 1:23.239 2:120.784 3:0.293715 4:156.8158 
0.2729137130851876 1:23.4938 2:79.4898 3:0.2759677 4:103.0314 
0.3986120786718907 1:26.2567 2:56.6847 3:0.1312546 4:124.466 
0.4691822981005754 1:30.0655 2:46.2135 3:-0.1930502 4:125.051 
0.4856522034604357 1:25.06299 2:85.66699 3:-0.09466337 4:155.7198 
0.5047788849353356 1:48.513 2:123.108 3:-0.08313463 4:133.3623 
0.4940629878725851 1:34.44904 2:173.108 3:-0.1503671 4:129.8 
0.5047293756906721 1:80.48004 2:254.325 3:-0.2537919 4:128.2234 
0.3142572482772201 1:26.81903 2:143.28 3:-0.08605335 4:98.9691 
0.5047090198162139 1:43.45099 2:170.499 3:-0.192733 4:166.2559 
0.4794253024296816 1:22.399 2:117.327 3:-0.1449638 4:105.3825 
0.4911460139878551 1:38.11603 2:226.316 3:-0.1321103 4:158.4829 
0.5047481304336529 1:81.72198 2:274.1091 3:-0.1660775 4:130.2504 
0.445622880121409 1:36.67502 2:158.965 3:-0.1675442 4:142.2257 
0.503643247618898 1:71.22 2:305.207 3:0.1475275 4:166.8766 
0.504569134614847 1:61.15698 2:152.705 3:-0.1594805 4:136.3232 
0.3504530182263214 1:23.85098 2:89.97498 3:0.4832289 4:128.9293 
0.448496833290894 1:24.6041 2:61.81621 3:-0.2106462 4:132.6537 
0.3881358532665742 1:23.1689 2:55.4008 3:0.3033913 4:128.0037 
0.5047424901029792 1:40.82501 2:245.426 3:0.1786681 4:145.3294 
0.5024127013444624 1:28.15201 2:190.423 3:-0.1290593 4:113.0071 
0.5031065640766635 1:31.23801 2:136.287 3:0.2185728 4:164.314 
0.4878336622713281 1:31.19299 2:212.558 3:-0.1980584 4:161.0236 
0.4924034187783943 1:26.43402 2:252.468 3:-0.1685023 4:141.528 
0.6971818526814997 1:23.14001 2:16.23999 3:0.2634046 4:90.30076 
0.5033189517293137 1:75.961 2:247.705 3:0.08856772 4:159.9442 
0.5048865660648525 1:55.258 2:176.804 3:0.1983729 4:162.2129 
0.5047333730002612 1:36.58299 2:167.407 3:0.2358115 4:135.4992 
0.5047447149174344 1:113.01 2:151.25 3:-0.1293318 4:130.97 
0.5047417027030813 1:77.40399 2:254.822 3:-0.1439796 4:117.8109 
0.5047334455134036 1:79.62198 2:220.605 3:0.1512711 4:134.4939 
0.298067882531565 1:22.5624 2:58.0155 3:-0.2412777 4:127.5834 
0.4790293103071489 1:31.2216 2:79.6825 3:-0.2369985 4:146.1122 
0.5047322811386894 1:46.423 2:298.898 3:0.2416353 4:169.5738 
0.2779704792771376 1:22.0125 2:54.2841 3:0.5252262 4:91.66582 
0.3045506420042747 1:24.63449 2:50.1217 3:0.07716985 4:117.2808 
0.5044671508739056 1:22.36499 2:176.582 3:0.1511939 4:110.9004 
0.5046716083633568 1:54.6208 2:70.53281 3:0.1267549 4:153.8164 
0.504068270612222 1:41.35098 2:160.51 3:-0.1651002 4:154.4784 
0.4985467950281635 1:24.7632 2:35.4125 3:0.1364321 4:113.8503 
0.4680755004146019 1:32.383 2:265.168 3:-0.09552025 4:103.2813 
0.5047467003725061 1:22.99597 2:217.191 3:-0.1330328 4:133.0272 
0.5047225323986421 1:33.418 2:286.216 3:0.08807665 4:114.2238 
0.5046810598898311 1:68.633 2:295.404 3:-0.0841217 4:161.8668 
0.5047167017556601 1:0 2:111.013 3:-0.1745855 4:106.0032 
0.5020076321273195 1:59.91901 2:304.54 3:-0.1361154 4:123.9881 
0.1337743412605945 1:26.082 2:83.371 3:0.2716682 4:124.6995 
0.5047174874097258 1:77.0559 2:33.6459 3:0.2976705 4:148.098 
0.3407212768434407 1:53.95102 2:172.598 3:0.0494724 4:118.591 
0.2873672571226307 1:29.0747 2:97.3697 3:0.2257424 4:122.3951 
0.311885292549761 1:147.2101 2:383.48 3:-0.1737808 4:175.5148 
0.4865447375799088 1:22.2132 2:71.18221 3:0.1784435 4:137.7569 
0.5048981506165706 1:90.58502 2:222.348 3:-0.09847272 4:123.9277 
0.504711657091919 1:86.418 2:317.511 3:-0.1474493 4:146.4033 
0.5046481728108856 1:0 2:90.8497 3:0.1725344 4:123.7162 
0.5047054741045957 1:20.054 2:235.407 3:0.1430854 4:138.1772 
0.4017084821033189 1:28.5636 2:90.1256 3:0.2568516 4:115.1659 
0.5046484855708739 1:118.2673 2:146.7363 3:-0.1739209 4:161.4685 
0.3236036930931658 1:23.73801 2:166.904 3:0.1344885 4:106.9673 
0.4956071993588513 1:37.814 2:134.306 3:-0.06598639 4:151.8251 
0.5047056117111262 1:78.76199 2:286.431 3:-0.1138339 4:175.957 
0.5046901926937628 1:115.08 2:132.02 3:-0.1385601 4:148.9961 
0.5046933482417518 1:93.72198 2:447.612 3:0.1867545 4:159.1916 
0.5050738418533764 1:73.73999 2:89.79993 3:-0.1866836 4:147.6613 
0.5037876036182564 1:47.60699 2:207.161 3:0.1151214 4:114.276 
